function [y1] = trainedNN_15(x1)
%MYNEURALNETWORKFUNCTION neural network simulation function.
%
% Auto-generated by MATLAB, 29-Nov-2019 03:51:34.
%
% [y1] = myNeuralNetworkFunction(x1) takes these arguments:
%   x = Qx241 matrix, input #1
% and returns:
%   y = Qx9 matrix, output #1
% where Q is the number of samples.

%#ok<*RPMT0>

% ===== NEURAL NETWORK CONSTANTS =====

% Input 1
x1_step1.keep = [1 2 3 4 5 6 7 8 9 10 11 12 13 14 15 16 17 18 19 20 21 22 23 24 25 26 27 28 29 30 31 32 33 34 35 36 37 38 39 40 41 42 43 44 45 46 47 48 49 50 51 52 53 54 55 56 57 58 59 60 61 62 63 64 65 66 67 68 69 70 71 72 73 74 75 76 77 78 79 80 81 82 83 84 85 86 87 88 89 90 91 92 93 94 95 96 97 98 99 100 101 102 103 104 105 106 107 108 109 110 111 112 113 114 115 116 117 118 119 120 121 122 123 124 125 126 127 128 129 130 131 132 133 134 135 136 137 138 139 140 141 142 143 144 145 146 147 148 149 150 151 152 153 154 155 156 157 158 159 160 161 162 163 164 165 166 167 168 169 170 171 172 173 174 175 176 177 178 179 180 182 183 184 185 186 187 188 189 190 191 192 193 194 195 196 197 198 199 200 201 202 203 204 205 206 207 208 209 211 212 213 214 215 216 217 218 219 220 222 223 224 225 226 227 228 229 230 231 232 233 234 235 236 237 238 239 241];
x1_step2.xoffset = [0;0;-3.437;0.00012207;1;6.1035e-05;-2.0455;-2.6794;4.8328e-09;0;-2.4546;-2.6794;-2.6794;-2.8232;0;0;-0.70711;-9.6084e-14;-2.9181;-3.6456;0.023189;-1;0.00012207;-6.5215;0;-118.75;8.6317e-05;7.4506e-09;-7822.7;0;0;0;-1.685;0;1;0;-1.0116;-1.6848;-5.0442e-19;0;-1.0195;-1.6916;-1.7107;-2.0061;0;0;-0.70711;-1.1527e-13;-1.4536;-2.673;0.08416;-1;0;-7.8718;0;-101.28;0;0;-1;0;0;0;-1.2345;9.1553e-05;1;5.4253e-05;-1.0017;-1.0032;5.8574e-08;0;-1.0024;-1.0032;-1.0032;-1.4375;0;0;-0.70711;-6.5651e-14;-1.0962;-1.7841;0.0012568;-1;0.00012207;-8.5019;0;-81.043;7.0477e-05;4.9671e-09;-2396.1;0;0;0;-230.19;0.015267;1;0.0076336;-130.95;-216.82;5.4206e-06;0;-166.99;-217.14;-217.6;-235.79;0;0;-0.7071;-2.0872e-14;-234.65;-396.5;1.4039;-1;0.015267;-6.5652;0;-14180;0.010796;0.00011654;-3680.7;0;0;0;-169.19;0.041985;1;0.022901;-116.49;-134.53;2.5063e-06;0;-123.39;-134.55;-134.52;-156.49;0;0;-0.7071;-1.8356e-14;-136.68;-417.86;0.88917;-1;0.045802;-7.2701;0;-11079;0.032387;0.0010489;-175.32;0;0;0;-135.57;0.015267;1;0.0076336;-86.229;-123.59;5.7976e-05;0;-96.227;-124.07;-124.64;-166.84;0;0;-0.70711;-2.2112e-14;-104.21;-270.47;0.55173;-1;0.015267;-2.8512;0;-7486.6;0.010796;0.00011654;-761.33;0;0;0.0017212;8.3361e-05;1;4.1681e-05;0.31914;0.12857;0.16129;0;0.23166;0.12761;0.1241;0.084124;0;0;0.061062;-9.5517e-13;0.078867;0.0078856;0.61629;-1;8.3361e-05;-6.9677;0;1.2945;5.8945e-05;3.4745e-09;0.48951;2.4587;0;0.035592;0.010008;1;0.0050041;2.4721;1.7926;10.881;0;1.7644;1.5302;0.90197;0;0;0.053264;-1.831e-14;1.4145;0.094113;4.2586;-1;0.010008;-6.5135;0;7.3761;0.0070769;5.0083e-05;0.53406;0.003];
x1_step2.gain = [2;0.339933712925979;0.323044370144239;0.680670803663559;0.0330022111481469;1.52783840166286;0.438923758943072;0.400304231215724;0.0265678343246908;3.53425577409037;0.414886113761772;0.400304231215724;0.400304231215724;0.389105058365759;1.96425063838146;1.59058374423413;1.41424712554272;10238663240127.4;0.381584721347757;0.337268128161889;0.129678046369109;1;0.537868941148755;0.145173700332448;0.0327868852459016;0.00909628416791741;1.22233423469054;0.746965454926364;0.000235691465729872;0.0869565217391304;2;0.32082644893245;0.525403246992066;0.901306894997747;0.0293250832099236;1.88893086513034;0.55398592875741;0.579626141138965;0.038367832409308;4.65592699506472;0.575804687050153;0.578486101871402;0.575307789667472;0.530250808632483;2.92051809991092;3.72065334672769;1.41421712475516;9190754101374.02;0.57113484493689;0.533120085299214;0.150253477616739;1;0.707613925842061;0.130926896967078;0.0317460317460317;0.0100011001210133;1.81636545272909;1.64962058726493;1;0.0869565217391304;2;0.325007718933325;0.5786199913207;1.1965240161302;0.0252273615963874;2.50514887318773;0.590109760415437;0.786379900129753;0.0447397266988923;6.70645831936155;0.77205172746574;0.786379900129753;0.786379900129753;0.671681891456206;4.41852244609403;8.55724798904672;1.41420712477549;11502780797257.7;0.747607655502392;0.620385880017371;0.212067866128173;1;0.738995089277867;0.123350191192796;0.0298507462686567;0.0113743644573859;2.42842366055281;2.94811322913263;0.000516022498580938;0.1;2;0.404015918227178;0.00470455400828002;0.0060427573484892;0.0382819079702932;0.0122742785942502;0.00394399526720568;0.00503778337531486;1.94666147557967e-06;0.0314980471210785;0.00474473334598596;0.0050205843960237;0.00499051801577004;0.00492732200049273;0.0190603259315734;0.000146102710205274;1.41780622842276;3173434544739.08;0.00472433504984173;0.00385282219225583;0.00122865511227113;1;0.00297559388290086;0.149320591309542;0.0317460317460317;7.11617149973314e-05;0.0110351400572251;6.08772412593868e-05;0.000537844486031775;0.0769230769230769;2;0.36757948906451;0.00571771634409217;0.00721167675757532;0.0360262991984148;0.0175181818362574;0.0045297035309039;0.00783177350511023;2.98173686173309e-06;0.0254346139661465;0.00519129938223537;0.00783146683373796;0.0078280950330737;0.00744546199091654;0.01892684773351;0.000141843971631206;1.41434713736139;67006164567140.2;0.00744463056020845;0.00388921947254406;0.0015206687432767;1;0.00315455324477205;0.150347679007705;0.0298507462686567;9.34579439252336e-05;0.0133353235859275;8.88730933709113e-05;0.00614514840533399;0.0769230769230769;2;0.401775849253701;0.00716897268621406;0.00947711294519466;0.0263907948907421;0.020831951827728;0.006631321721889;0.00855285665412248;5.27481801958491e-06;0.0448531060775959;0.00811829986564214;0.00850051003060184;0.00838152711424021;0.00784769199378463;0.0318466266460725;0.000405695971439004;1.41444716332621;41093920154513.1;0.00880824451686779;0.00589963540253212;0.00178851159769735;1;0.00529149898226087;0.181098725970463;0.03125;0.000138318325794985;0.0187971331063717;0.000176616038553765;0.0024187218747997;0.0714285714285714;0.353863302606203;0.538013505645429;0.615362530686087;0.035983519548047;1.31013664863465;0.561220767413277;0.720297626979468;0.0210777673712156;3.31696961655831;0.566453491336094;0.72004867529045;0.719139908669232;0.708949351240449;1.66694449074846;1.21241513094083;3.09574520778642;1447817053837.08;0.649871179285486;0.790259451661094;0.116470636878913;1;0.520966744369456;0.148011100832562;0.0317460317460317;0.0151508838646875;1.14893596279316;0.659978881432516;0.000119835749598429;0.00550658821981089;1.25297581756672;0.00797211647032566;0.00761962839438063;0.0356716071842617;0.0159865718040442;0.0043720825912634;0.00831540670238411;1.70591825494416e-06;0.0462267421703455;0.00830476494193308;0.00828501100663712;0.00900097989167591;0.0261413988262512;0.000253046041727292;3.05882424913512;45224312590448.6;0.00758364284075677;0.0134702007202018;0.00111511225779344;1;0.00449812211498319;0.164849204190467;0.032258064516129;0.000130347303416372;0.0153771724664552;0.000118217283716791;0.00304115007537338;0.741289844329133];
x1_step2.ymin = -1;

% Layer 1
b1 = [1.3172997451805661395;1.1531215124264875271;1.0924320663010822496;-0.70242340069034336913;0.60547284833482362121;-0.55150445470182363206;0.32860926686462199608;0.064405904140288267046;0.31079315182854838628;-0.38395904388038032407;0.64559074300282603964;-0.76447983100748695406;0.94421178250827397793;1.1532131845854383112;-1.478299382581109489];
IW1_1 = [-0.11898905183683052 -0.011133278811374337433 -0.14922605406140759809 -0.048393758074321127638 0.030858554977090724147 -0.037419229930610038715 -0.0092442469147025630588 -0.083607348534321571099 0.11924168361460822652 0.03933022210158672316 -0.051280882661893276153 -0.09538593828377206485 0.0010670232108173406411 0.036618873724752032395 -0.081688224734456388321 0.049768247255568782983 0.0012040947306798408054 0.02247566508274513597 0.061551421791364357983 0.11799141820299675898 0.10476969207439168486 0.023103536185176173912 0.13252945611231242706 0.10323026949780853001 0.15908975997773278088 0.10688428449090428551 -0.034417566876626094763 0.081127802711253207968 0.032572252455248015823 -0.14321664001447670378 0.071186066562037228489 -0.069445691742485354814 0.093420766824471937473 0.023804574679883758886 -0.16225672254092934899 0.035660974206033896339 -0.091891714326207796226 0.11802408720688337129 0.041699899649824422043 -0.084734940377427153679 -0.040066231259751582117 0.11159648294516573419 0.06608729717945813209 0.13636515149194666785 -0.16269112516172118399 0.026674723283109658123 0.0034488484451162810911 0.0059302809208834324564 0.076507388130253359271 -0.065899388855937823806 0.08822275994090786333 -0.15240739642435521817 -0.11997538801140565645 -0.10396353606293541605 -0.14961451407074627395 -0.13155792370659682988 -0.094506948961570927392 0.13556684336990429407 0.19757783663999775592 -0.044296097918431587281 0.069017478976574536675 -0.01326341503677859468 -0.0058234190702568071341 -0.14673301135379504534 -0.040739535666094624233 0.14646692720355281025 0.13140622139152896564 0.051622644537050767222 -0.098010052489034216183 0.13371317416275554923 -0.013917193802296281072 -0.12884286891939442099 -0.13078428063827132743 0.13358700729476646885 0.023245436861557656344 0.029414863793453573104 0.080962045810493266096 0.020665683878212399299 -0.033004081772073083634 0.15399564697526199608 -0.15983840292974091368 -0.011849377893212571095 0.00089086711659126620322 -0.081497055514003130527 -0.14255829358525218264 0.12233595415277780105 -0.01433962502393528772 0.11586152099904967194 -0.033626027474690324548 0.10250308947013367367 -0.073293072442070145156 -0.10093505880478545467 -0.1222187762797708882 0.086098088852964840823 0.1235493088660897798 -0.036616711738662294229 0.010221499121401762117 0.014467013976827737542 -0.042703771391296684035 0.10394399094562471741 -0.1368392019779098856 -0.023906678113668290708 -0.031453036309113259483 0.031051115055634143786 -0.01189035465522647432 0.1183599086943683959 -0.12646514724532997853 -0.082320656388998061925 -0.025989582589345545244 -0.0050779361688785907072 -0.10407291894678491473 -0.12237831069044566301 0.071624546071588565677 -0.065843601972486662244 -0.08758185686420609517 0.06596046779120000314 0.08637606271802046598 0.019850519170094498012 -0.10694009176722513166 -0.08241356494183470216 -0.1101084678318328125 -0.11163760499467900722 -0.05194638462201538881 -0.13541889829460534989 0.14204710414314461464 -0.072670335656743800801 0.11147233426997668615 0.064664737647391890007 0.087492397511516939446 0.13887035740868500233 -0.1075753032020081712 0.0021626876552391753605 0.12100194826541113557 0.023111728781974986285 0.07915762613812384052 0.016347280605713557927 -0.13900319074434067113 0.10418969898484907455 -0.064415259822498294184 -0.069886166864182142078 -0.030338918606026919061 0.1594819591303135442 -0.0048633708092559006786 -0.043418410529845262447 0.044708302051229636964 -0.02116253228950075449 -0.14903548178393197232 -0.15083862699282260533 0.066864663588870831834 0.00075190115877839323443 0.047891808389154036374 0.083468196456959617424 -0.08642868661483160686 0.054898806093923668836 -0.10380816781712474961 -0.072535689641664374827 -0.0015943390833833028224 -0.16215313170127579334 0.12657381902618275449 -0.062059827664087324761 0.016352180331859558077 0.015964654647230482748 -0.076190596978252325688 0.057643563959051874468 -0.09463590324564413736 0.011929207803103556579 -0.13996861161394463791 0.03730036410615195086 0.14443853278251159167 0.095200259001578427243 -0.016540510771756274794 0.14135371211481315146 0.093640481999028843396 -0.14163821395729178643 -0.043324647318434272858 0.045127113462256285281 -0.14284733572410432401 0.013316781985292916457 0.10936328463552609513 0.16184313490780738443 -0.018388860013642656377 -0.15815159675181586496 0.047458897674118719068 -0.13850972515775272775 0.033398055698649044276 0.069357116256357376205 0.040637206907581907567 0.10929953386918467295 0.15533506075264122415 -0.082376287936053602112 -0.053417664739715410571 0.13444807885468834652 0.11253267218312063003 -0.014097143082926042248 0.091401066877472847416 0.0090591710083814565302 -0.15877330684947588146 0.076213054131328381025 0.0070432842488187766966 -0.12105601777710978117 0.0097076281341879431391 -0.10055843862034737068 -0.0063642791382807510289 -0.06607113049623962453 -0.010359993320841287198 -0.033745440999039859331 0.034825498631442103337 0.017732121576310381356 0.035026262786497779078 -0.10729879178713155885 -0.0012787962369359793125 0.12479195023103896445 0.051094283875144232143 -0.076499580538550812636 0.15437432394118974499 0.090705874890558008117 -0.15228656382542868353 0.042737637120462954043 -0.12888851728046529788 0.073346672893737585586 -0.098891855710598441931 0.14299311124345087665 -0.13855148784880888524 0.11859149674874816527 -0.10472992379672763086 -0.095651928212527451145 0.06844354703482183333 0.13852524692848214305 0.089452767314925671349 -0.09982530629651488463 -0.098624668465902523562 0.031191500520138717295 -0.13346149087246131359 0.091548243763036094012 0.073744245358349794217 -0.029534378442206674076 0.12365553985847207996;-0.020063540231661111668 -0.035359958620790124528 -0.12422934458410130054 -0.088988383662411810193 -0.013546233148606832974 -0.060899481058785662202 -0.0026643531938162529245 -0.0014225602519806681157 0.049289198673315222365 0.047332193354835537524 -0.057326236084477504018 -0.15218555588251303501 -0.015009177021583020376 0.14397022886046295653 0.086586210145190287135 -0.06773074286402162858 0.11399957592637974257 -0.0063471164225639238252 0.14795466647497487744 0.022785279894442678206 0.031773655787242199855 0.020502235780846478352 0.065849105496091783762 0.13684920316338888835 0.030131125347482291127 0.11723394813933707415 0.04209128933351067442 -0.079802153591533447896 0.062238360301540597563 0.081039304647407134352 0.026026521953875832865 -0.070644855598490541304 0.050909650725336604016 -0.1204647397815175186 -0.095072128838882427604 -0.0039739025833386062286 0.14466248056275954337 -0.090624163402206039941 -0.11440225793519001596 0.024098160694970206797 0.15721984010835682311 0.13081930810546701927 0.060700025780418602472 -0.14165784861520652749 0.066414282461334933627 0.098146272038509452251 -0.09969761501561784367 -0.0098539729946664905702 -0.094800883334925908907 0.091116801655051607445 -0.039917138853837214052 -0.075940848269282365535 -0.03668036891949977979 -0.11009558745449514461 -0.13525243577938872441 0.13377264246173653506 0.11739360742361862333 -0.11814993788344489711 0.12133754114799324975 0.096433357563817587166 -0.01780824075805218995 0.056404337419238628759 -0.02705002725642156533 0.12981751813430497666 0.10664942688138856486 -0.15893301648771115953 -0.048524557959882315405 0.023489489994094440994 0.11044287425745544229 -0.020305848815011195291 0.14608185019410060979 0.0487666453791113369 -0.12718193880003583751 -0.0067925491249498717861 -0.0019782261684101174783 0.087331077389829675495 -0.013862447403842487192 -0.13462584312937295183 0.031822753303962801608 -0.083870035456236766147 -0.12935254423415590286 -0.14565097559458134446 0.12106122027322357981 0.041972550068774615306 0.082891674455792666021 0.0075635708085263946357 -0.10078230343556247861 0.013568592367744091234 0.10826487706218948515 -0.014993273071050569611 -0.089962757449763813833 -0.10430452739275039575 0.006477039889729359172 0.14516572270517552612 -0.072232124586999721383 0.1224391897127074802 0.0029615263211027003341 0.09728702662323036876 0.041894002609658885505 -0.050853652141466490488 -0.084154925219909859635 0.14685323087960991395 0.14355292013498144321 0.15759580578200674261 -0.085403648127552231339 0.067527065644275685585 0.015359513340473892121 -0.15010535155297302645 -0.15245328590443896211 0.14500091370146026004 -4.119029672419122841e-05 -0.12541412523886255603 -0.013652715643361408582 -0.036478898824986477623 -0.032913389683688135112 -0.023488764779712394126 0.0015888315221662980149 -0.11029403870204627924 -0.15205760530351886128 0.035849812979193228235 0.0037928425436228228006 0.091289015910258078379 0.058812406121601309983 -0.13422598374683167299 0.15553114470588871865 0.096580603109239576698 -0.042064668051197871834 -0.061677469391055596282 -0.13074815791854796365 -0.13836824320337309802 0.15559880469286949123 0.051565546119662249158 0.03404740837664643055 0.026048682749697581879 -0.030479395817081297859 -0.031417601545745431346 0.090584869234936124527 0.068029554906222505783 -0.080123706958543663981 -0.022755859805709321986 0.0082091187117379459809 -0.021823077296271812392 0.10460082098157925945 0.16220884653666861608 0.039428218822505106678 0.1561840610952361097 -0.065700976826478657555 0.088299125728498045751 0.069432292010843069119 -0.14224434877472805216 0.11625801517790949891 -0.14532103623917266844 -0.046085942822669492824 -0.077184757148036770014 -0.063266286335597624046 -0.12984343923126423492 0.15976185810534357379 -0.086852795133648019732 0.052850863665284131265 -0.12095270426764520577 -0.0039922541565836711444 0.079905509379955538818 -0.047037143362449629347 0.056222742417926109548 -0.0074640206413313049325 -0.027167280659034020313 -0.078112136138610510638 -0.090504921732735832407 -0.15405929584583025194 0.15818275628042730019 0.12818671604135989384 0.03621436622483924922 -0.045838266261693384751 0.031857659564805580754 0.078636563626383979009 0.072026850733353547929 0.096285081121565530005 -0.12301612137606289521 0.14896818018216548274 -0.021182130072005277144 -0.074329286403167937891 0.13796441400518330567 -0.0055709553606819528851 -0.044282845247481820994 -0.024057540354448594261 -0.085642405432138038468 0.14989855769968396526 0.0974208802268402424 -0.12276123374578946923 -0.09411178472358146252 0.037832775235613451403 -0.0102609905481376492 0.12115415378247393341 -0.14584011752177766796 0.11967154481966549295 0.057688848303155390584 0.10551040075894635439 -0.14549920327565271649 0.13825953550272035431 0.046742344770212967964 -0.054368610629569012749 -0.1319363080255089582 -0.031714313278568259657 -0.12694787613009816951 -0.075135115262315671503 0.029904748473778851314 0.064377609274116981419 0.038243406615960574835 -0.063561236004954668743 0.065074174331864062526 -0.13775831042327571496 -0.10285364254390547134 0.068673678596868334423 0.087621562010773340612 -0.032962499273065569427 -0.1224084220186231059 0.050919336575994747496 -0.13122804721072267586 0.064428400799125193354 0.10814190472888643435 0.11147436906499616494 -0.084559561243450293011 0.039549643974536211055 0.0026976181975532334718 -0.12127295313670345689 0.072766612394150997911 0.026678931925920617435 0.079082523688516398463 0.101906526059767924 -0.12906449949904069685 0.082764031922307357281 0.15147960764172327397 0.12397593636103403092 -0.12036962073017272445 -0.059848828290221839366 0.10696223005967446518 -0.022935767718008762822;-0.041213226036196752566 0.093684243312261855641 0.041070173403323799455 -0.06872618221656008608 0.13059964359330536454 -0.13304847578294301536 -0.13320001909526593686 0.046101943572015455231 -0.10662303920660134993 -0.049442708107362239034 -0.079378946583389231595 -0.0065167874994636991459 0.051129707821696485093 0.12263797236477974595 -0.15063553639746266044 0.036076734465526089091 0.10095462809194197251 0.14868673793335951405 0.003614154066960546547 -0.069366762881146765141 -0.14029886597202459453 -0.01547923070774889949 0.088351937490566218036 -0.030535297932543593868 0.095693020515460594511 0.027030189157860221028 0.054413044128921526921 -0.055720767938313806034 -0.00024374566479961809733 -0.042898309827516405146 0.071075936707169662387 0.14212102409150417781 0.088199424501058470982 0.083866787312305693392 0.082374523521559578354 0.02763012187726925778 0.13196228468012694002 -0.071330978857166604801 0.036142842916140026366 -0.094204285682684366088 0.14481161252798499528 0.1252068241987518149 0.048035339739921543989 -0.076417962682901824367 -0.017253245775727951011 -0.14165357604889664001 -0.14320020602608954374 -0.1495355572442179648 -0.066390196675650256508 0.025416357841439782966 0.11682566665601602784 -0.082511415067953092217 -0.12757607324165856633 -0.010255079147802074677 -0.017806930006248510717 0.072114013219167411028 -0.1031360491214197983 -0.081458903121455011886 -0.16188032760135737109 0.050219380581463808622 0.12208682802891909769 -0.080930211134898649705 -0.045584501956459917704 -0.018539563238094237257 -0.14273773365501205013 -0.024766887264552898268 0.0294616536994500057 -0.11050980558601297687 0.020820114777715056226 -0.091035887488356739827 0.1170775331197349417 -0.136358965792726744 0.12040770760537862494 -0.11731954942851303969 -0.12441553181079612056 0.15565933240945303839 -0.014542335325049227102 0.0976790841226054668 -0.14726410350659027704 0.015244910030511442736 -0.045961179729082736467 -0.14509865474724170653 -0.084151989320913556103 -0.12206840045226279023 -0.14611069805010157285 -0.0095041822659908542503 0.050089904540312993331 -0.080935896885878572116 0.049575935799322838615 -0.035919972697068806855 0.15265991495389963362 -0.13476639218358921202 0.11531405821881759999 0.041885815492568617691 -0.07733683645097480519 0.071984219984331840325 0.00833488724097928603 0.010729148912840911351 -0.040571977831561224781 0.10624175390225679139 0.070970844779759720278 -0.11757577173999586573 0.016661330335618337178 -0.071929351805937180586 -0.039818532903773393161 0.077646524489390050805 -0.10133755123221749317 -0.044442445882213590935 0.0052082554270892530285 0.01281340304042214405 -0.13216519179329883071 -0.0069847186892700941288 0.10600654498270449533 0.085939396986637578424 0.116065624799178993 -0.11528325601057386185 0.036194300641430525445 0.11351725763863086682 0.10456198539482521037 0.10499989937047242428 0.057353873848129781343 0.14777840446284010167 -0.0070823657577311731337 -0.038286261760970954904 0.053073973051739026241 0.010697168627373365019 0.14739535442120926811 0.037651602847034233712 -0.11914581447870739583 -0.077574211972140316718 -0.10981631113420732559 0.1318089754899941235 0.15078932528183761064 0.10807873597913685015 -0.04524849723828234388 0.010616581526807996466 0.13251722263984533345 0.11664712544629669833 -0.0045578347768428532569 0.096914304340190118858 0.1172933051424436407 0.072420083543313085173 -0.055427636045180202207 -0.13620696644323618263 -0.086419748973306204087 0.061234494178376536189 0.021536437503281539996 -0.1145242167501802355 0.14488753327243594771 0.055367964526481405763 0.11891095697353662453 0.05261009111983945552 -0.033379789621223412976 -0.0040257953569379830577 -0.066803121458865480364 -0.048051799329986835674 -0.12177435742878896241 -0.013741780733577187157 -0.043874112595345855781 0.090281942156659356069 -0.02184134358335234824 0.0053689430259682589461 -0.043220308781905962536 0.012503945231098712032 -0.041987972975057172298 0.074088675174150200875 0.11072657620265308198 0.12739988429558171679 -0.077160566663446963909 -0.0036387555761187634004 0.096386139314641516851 0.074778047412578985131 0.025549253486823679526 -0.027359694167923286762 0.15505878487877144956 -0.084828118402476393456 0.099534516222400476471 -0.13852743390799202028 -0.13232292909076751042 0.094944865084731669413 0.080700008000211723158 0.10482863318017991705 0.042807057757370585438 -0.10338895861678290555 -0.080779846634830135277 -0.13576459240681409968 0.14292164604056267763 -0.1053900139861508739 -0.13671991932568516859 0.12461706863448802907 -0.13667483816883418957 0.13099292098463916068 0.10315257573193421792 0.067941965229045636621 -0.099586336781555248598 0.042331874802015313775 0.13092605427558315356 0.042657669259249200722 0.018366888052906038542 -0.12618637404918126022 -0.15327132249479144543 0.094516257430395503314 0.00095468870085088316547 -0.088351532897178536308 0.12817322465489411343 -0.11870163300954206242 0.12194851994143560137 0.1544770693876045542 0.14530280354712668545 -0.023033194359101998028 0.043384320208964169407 0.013719173656615858345 -0.063724969485472043873 0.10588866904956653614 -0.0070882297838795477879 0.1204129987619400044 -0.12301864796063963214 0.067581385412890604414 -0.025020839032318342027 -0.063756877245249005126 0.05848140935026361481 -0.055031367793454390169 0.053612411238673843283 0.10156371007793738026 0.099616453511847752322 -0.056868961892348857123 0.085389545210802608732 0.087613816489843510116 0.13365289015007020268 -0.063411421469445922172 0.1516106610811405464 0.032639078193298039221 -0.047984101647963003923 0.12327872732087419294 -0.090735842055833626496 0.12218916698849223434 -0.13147521269134732069;0.054782397831814405587 0.072595092905627336966 -0.06273531015455910409 -0.15033483957470855641 -0.029213901672272900994 -0.14127694381528310696 0.094606972956281024101 -0.090216197249582408269 0.10014299509495902529 -0.13954498699045497778 0.070017327019970265756 -0.093961097703551835214 0.065310863305918065436 0.025212876794290257215 -0.047435429158800473948 0.11043812939362572523 -0.054641084872628704894 -0.12081039746609070762 -0.12259395406062795209 -0.13864039067994479715 -0.10510261212149774046 0.13673909955358806712 -0.13108577950654132227 -0.059218224004183202258 0.13961546878199132538 0.056480471325889125556 0.090616824369633822145 -0.045805180586789950858 0.14528432860410878114 -0.089249630433169135912 0.038167848010782864931 0.13877510390062941514 0.042440273675895277827 0.012888786467743407541 0.081168377158468127397 -0.011779214453294474529 0.063192286057158042478 0.025484994178226336864 0.015757738114263480922 0.10109806948022831419 -0.02743525608051726461 0.061288105512130500174 0.020190096673451615045 0.078644290455335344459 0.10480021474169441686 -0.052621144474145641057 0.014053969591827867452 0.089868028638033600752 0.067527935287244225671 -0.14643601400204092622 -0.11059546944788783973 -0.13347387450103734285 0.066774013182561819946 -0.0021399506688515360607 0.029621501767067209832 0.08127324070817641688 -0.022248063133898127175 0.10808513519555622284 -0.21354024261995890877 0.14133627190308067911 -0.031611531021976745082 -0.11601068141247028453 0.10927887865668520218 -0.029486432854366449036 -0.038493131074581805884 -0.075328151324784042853 0.016829012765307578559 -0.14282291458775342452 -0.10325546832506599104 -0.052523188481124333249 -0.15576348498042746904 0.062660662249222731646 -0.0033920786334678603921 -0.052053167662294522189 0.091826162435853356247 -0.15054592623954271557 0.10135412112378315574 0.038866703667973394321 0.12980573126121053296 -0.12398247778865643942 -0.057827931410658839351 0.039571810982630531428 -0.04948105224932142221 -0.089543386189064003156 0.00020068485076516008104 0.093907572313880832704 -0.12676214251226897156 0.07672383448471353784 0.11315554333487370942 -0.071139784275515732803 -0.091501616108090988444 0.059238135830767903178 0.03305685917163918297 0.13608854204434722712 0.12738928111874356364 -0.14358945626568281329 0.14861882333018094915 -0.10308768147031562024 -0.085546539299874976847 -0.080270754275817979284 -0.043274278638115816487 0.14021593093450110401 -0.095484311380441111439 -0.10053210315217046833 -0.1523877331395844803 0.1246008933865401791 -0.14725881535087712026 -0.098134512746934812744 -0.0021039294521034150771 0.059622639523056887578 0.051243768533877583071 0.12600097863713285995 0.13642210479549526925 -0.12869261461397818458 -0.035996195469100870923 -0.0090001033545010159648 0.15600159190858997604 0.038554986188642052791 0.077301560474282465796 -0.15220882177874087149 0.031300446275085290482 0.14066046287877051468 0.053264385484326361164 -0.075097922331365515869 0.13447233815540049484 0.088436025543380591962 0.034508430726792958809 -0.073990522130580424487 0.063857817399103830591 -0.11458081050044430227 0.0072415174061476487652 0.067571224642106672564 0.044357148877921567798 -0.046839099974803399817 0.04080506388855963118 0.014692777036406928434 -0.12875813767079125061 -0.11455032551980633138 0.061220766611971184912 0.022895661890280440826 0.059444303147375858465 0.026305337863985651936 0.13666447272404047553 0.076091129343932500939 0.022665589130601113133 0.012786712735645747868 0.1403000484849770968 -0.076019770367590069893 0.15267033684143768713 0.048873980691479211591 0.047150376187021628138 0.019493198288783111782 0.0048785650292196081415 -0.12663991535987489945 0.10999968797186153446 0.041836921065567002354 0.10103473781422830924 0.13321997177597835749 -0.11796713004490017029 0.02433675739759687956 0.032179388330732118517 0.018006138046679529691 -0.12883061423370173459 -0.07425947596932945538 0.06274818409381527351 0.083012894331375569612 -0.057660743245464156359 0.14134802728199816202 -0.14598871510728395062 0.13015564489130804215 0.049970519273988933673 0.10007016831735848772 0.1315759090017044608 -0.1372275721249419933 -0.096010736192037773873 0.11852561322497030816 -0.13516070282813452685 -0.11103235378527011312 -0.15587122329000085985 -0.020111328194939059183 -0.065537443635915612616 0.076442796595935058601 -0.028555485906834241622 -0.071802638202500712605 0.090417943496595182262 -0.066057174845090799176 0.001788997675458618361 0.13651922886890646702 0.054991049567306458934 0.098529546088135577797 -0.018982596524129063953 -0.10406258704243666335 -0.09735943330685795094 0.13641909915287056543 -0.045040698567062928404 -0.070782767391424888936 0.090022041784578385459 0.15565519870963678839 0.079088181931423931492 -0.054707214227183040278 0.098982431813153831657 0.011263042744892761207 0.14195634568906953521 0.018357688403554787288 -0.14091368190794106852 0.088420797985440405253 0.049090278442563958783 -0.0079738060386047755757 -0.10326672132897175838 -0.098207173922090829077 0.091597690270900464227 0.13117153261574304723 -0.10491868166339485269 -0.047603300996493083663 -0.14719618329859518457 0.081001256374419183803 0.15317370378381051088 -0.01645986415807449213 0.099291055023067620322 0.090462981598967512342 -0.10050443794812577436 0.096686098953208274298 0.1297479616893968124 0.11860118703104330362 0.020370063641735432908 -0.084028395944153261299 0.046022405999553581135 0.068044430961140420222 -0.066337423621123103867 0.0067815033352992297108 0.0032175956354995025911 -0.079770254865676182288 0.025359226014632498675 -0.066857814679469496078 -0.086045722593357715224 0.096830197693133973624 -0.039203696190314669956;-0.12649406123875786556 -0.054412257523885676491 -0.037091874621557135994 0.042243318238889590588 -0.12139111881894731892 0.065261185725761811094 0.058778823274989663861 0.0037562884167036420663 -0.013541956632556405651 0.025453791535024496845 -0.13472571278872219613 0.14683354440003767993 -0.12954225540979066866 0.049688063760866305052 0.13039351589200659509 -0.060008443237983211116 -0.083884856127594525921 0.062318822539201387811 -0.11354501506661118793 0.13091908857373132924 0.14488298034438013007 0.071409437606787862229 -0.12065343877167718223 0.071895273577221002759 -0.054678566155707986063 -0.06516763138706629932 -0.034487841943324638871 -0.15773520463777213063 0.052174518166340708158 0.035152457189827741868 -0.12636793055351774884 -0.05031652604288502223 -0.067820958964993349749 0.12627828902187965276 -0.050474875182606002144 0.11854196323717992867 0.068191066706032685274 0.11091966402652458923 0.12975372243506724801 0.059574519924188454323 -0.1008135449696323932 -0.091748859401838273042 -0.0009619507014825599096 -0.1516716117101901129 0.016191351228843686716 0.098582101889017878515 0.15081890887048360339 -0.051040948865171478777 -0.1116041657113829022 -0.15101426254683919526 0.13302569455061741266 0.14130630627920132136 -0.046258205511032081392 0.11758879877237812805 -0.12255686569074537851 0.15107071990931092431 0.11864384660472518385 -0.034883074307956771221 0.0028445863308369291091 0.052186052979334422719 -0.037927111685062367408 0.11932169089355314229 -0.077498191548555597774 -0.12662965476225776507 0.11469866541658221837 0.010590944685206977668 0.014345677880517148164 0.078068141446591216015 -0.019098119931981506064 -0.14371873515206645688 0.099849140471466465985 -0.060370485102909807185 -0.078144607086315015509 -0.018725727993761938361 0.066592686572368525733 0.075375717606934830584 0.0076118216544479077104 0.097017677969298027341 0.12644765672295049663 -0.07708425721175643508 0.15251354571263670001 0.091207375259306500137 -0.021125929939002474622 0.038029641888490652024 -0.031156553554906644965 0.094163607339960181397 -0.015927335910320705031 0.14501980935140049156 0.084209958350616356815 -0.14292536409209263826 -0.14416059209711834521 -0.051163911908856822552 -0.0989598670591143037 -0.059681763934588204223 0.014510394971808573961 -0.071722175669407139953 0.14700769968382959574 -0.099561703930775430349 -0.09217460872465822741 0.0025016039844095350371 -0.024011435295029106424 -0.050947726446684216128 0.075172578227170272491 -0.047199815047048419847 0.11030403663493430766 0.015002554369794291952 0.089913558913803870443 -0.07096663893431758019 0.019356078893833259663 -0.15079427171316339695 -0.14784354909931721189 0.082937002740117171662 0.079975299098111213292 0.13040447759757725632 0.018290158485398118338 -0.11421811057834178882 -0.13372726430276560272 -0.068306811726412466901 -0.044236382140270029406 -0.026457541487501630428 -0.14431261489829047551 0.043762328457587366948 -0.036972913674779658844 -0.010403355856136709684 0.044252606113543029032 -0.040994124280174105979 0.01079977125947748258 0.0047978599533884235678 -0.11785934895457399196 -0.082597186666095834262 0.0053350175227974356088 0.11464201099767727665 -0.039212340006156469474 0.069852169755340018376 -0.029713883584851327052 0.15172347977578712341 0.13003922985916951949 0.022621823768102719554 -0.013147043068245283307 0.032712598666432571304 0.011676143839281432485 -0.13543344941818036276 0.14683352072794889076 0.079208287445654237957 -0.0098513040430468525044 0.1505591693296261524 0.079414816069420357536 0.13143542563356996888 0.10423991295040049843 0.11702559718733987482 0.047274373729997258564 -0.11170510945317581319 -0.057193566788583054261 -0.12460393938521528712 0.1136839232328780841 -0.11771426474813036223 -0.11380096906485658026 -0.10631684218432525812 0.0024246943458262047201 -0.034332984760644863487 -0.03261916737621550072 -0.1338751427847843789 0.086561485641586652373 -0.0090812824684123518576 -0.062053414542060862658 0.13836676759559790595 0.10330694080804692092 0.14111180960370986459 -0.12973772675399719567 -0.098996847221304556941 0.10012103944210266893 0.15559105112060284126 0.026893936626494786835 0.034917341565335428821 0.09241636830116893575 -0.071313624464429362093 -0.045952113181419049215 -0.076992004496843333139 0.022985902532460439351 0.0012990171914434012462 0.067777594559397635887 -0.077404862958490902591 -0.033402415980816758945 0.016402535417045588373 -0.10279139403395748387 0.13951337340286412703 0.091774965904611316425 -0.092935239642194147902 0.025551370356538798817 -0.087745249477165804253 0.025886788669805649299 -0.120979236233346929 0.02850527708568146093 -0.046464100636167765535 -0.047840169632297549485 -0.065966286209643884564 -0.10772709629716029078 -0.060426630334485614826 -0.10928882865011992076 -0.11011223972645353686 -0.020853936034091503926 -0.037820430254346192045 -0.074834178539925716445 0.14386020869737650707 -0.055885795023460284325 0.077970186908381561297 -0.069891314990482081293 0.12401504781819192025 0.11285362932180321993 0.025329217498830016581 -0.15124955060763023429 -0.1469811387890884169 0.034637779216582065267 0.049158575191586555142 0.10536654597996429616 0.074169680668306203764 -0.15459254010003789515 -0.068176952533264334466 -0.053529334528498659362 0.10890708833603604533 -0.029837535117359228337 -0.1255385835576049991 0.023594401377381273022 0.024243222965450526851 -0.11655620285598343455 0.0042944277048140230835 0.070037957343511911268 0.15283489778056580377 -0.13739492087697191547 0.010094577967250340997 -0.15523688072756208767 0.10874843500076858405 0.14634461602549930781 -0.14523391236511823399 0.01131791050668282464 -0.1156070910865006629 -0.130116248219473013;0.015965816468699531305 0.07043405650836626064 0.017412262321561032541 0.098784070569133422546 -0.075809383339162275672 0.14328601227588577682 0.03671405175454974662 0.044882803637063276025 -0.00071109292433950302501 -0.012344821327106278441 -0.13747443697152261777 -0.12147119269514181084 -0.10026436274455831354 -0.11363180009216081179 -0.150842712280565866 0.072652044739335272516 -0.043144943844454670956 0.13026244742064158055 0.090755239349326027876 0.064885494507557345267 0.037031943098648677226 0.01267966148941442571 -0.032944018414974983455 0.059432563431541532428 -0.13178085277081430515 -0.062085606707859411491 -0.12974604182528418073 -0.15325622907986868881 -0.052632975843166021623 -0.066417151531909787709 0.099179655266867478014 -0.04300147357735039505 0.048324500908862345894 -0.11332000889344094607 0.092896027628973976142 0.053565151832309185198 -0.14078809123221869282 -0.0038525452040238435808 0.0072986609098462133446 -0.10476559116276855377 -0.011780594015664575674 -0.097573563865386556127 0.079897684667177143458 -0.10628552362454941893 -0.14558621231375373783 0.026112517198764735593 0.012394037793140142215 0.1253187113741825176 0.092286857216683143568 0.0081716988792477785603 0.091561411678310541951 -0.13796029384984340171 0.00061075092502445901387 -0.0085804035326012446927 -0.072835836178855820067 0.077074689689739017684 0.053044746906368130113 0.12368570490375263571 0.29381538740332452386 0.058435656080421158332 -0.084491672222396854708 0.054595592367315516624 0.017979682858594320943 0.132203911606893737 -0.069028078697704386979 -0.11813592332935002327 0.05073115630855887237 -0.071286327984982966743 -0.086658480501411991326 -0.037645182001594855448 -0.10856573119973444985 0.12569523515290445537 0.024005289552117076851 0.014238568189750812343 -0.12193040124159908177 0.049105585184434016877 0.031394018610568508176 0.1067126203852267613 -0.031575003380039344536 0.081449237069417576573 -0.00030441816756164791821 0.02365452652295058078 -0.063767036244598424011 -0.037928439916528111642 0.12964624750805062159 -0.024535356247674878355 -0.12766614043095500519 -0.032710610405656197208 -0.050821245910674703317 -0.13602275726112522669 0.14387054366541432437 -0.15463410958393780659 0.13164280697885893945 0.11531911069004371906 -0.032974459020181916269 0.10779932719985978185 -0.11197335880551824439 -0.084053661254703856964 0.017623901013339115379 -0.092377698261130111734 -0.13590951837504058886 0.037762641755864162496 0.10067284236092968741 0.012926159438800781734 0.020730646196040529439 0.11178676677179993915 -0.08655353691058666199 0.14465640823760464451 -0.12090357970857432135 0.045017800566516330552 -0.13319862732469003874 0.07668330882173705898 0.13307603365155687425 -0.1000269751389181172 -0.048087826041633821572 -0.08286914627114250198 -0.026773104059953301698 -0.049957796778841059848 0.10981147503504207208 -0.10259674374758039062 -0.12345270543659081497 0.13481297424619784198 0.14120665138944313299 0.061430539883496511344 -0.1040697309072770721 0.030518070513729522036 0.0064005655499145205911 -0.13797515291583514752 0.10298070335365838712 0.088073077198850921454 -0.075641429332775067529 0.12107615440777894089 0.0045831935177071108506 -0.028938041080095101842 0.14385038307508465905 -0.0024243471065336546014 0.036829517255075244764 0.13993914233249160617 0.10451091523786494586 0.14756020970847766316 -0.1204191719917037523 -0.011781526250097771116 0.0373281461710020801 -0.082316954325810140491 0.091670821217534184666 -0.01802517543956983978 -0.080805959320451758998 -0.14772580039644178651 0.096557180394245503696 -0.13976279718303577515 0.14929476350452750011 0.15526790546783267311 -0.090208414763660940694 -0.12718455970751652018 -0.064679937419679603416 0.026583347963373683137 -0.10359724585440380218 0.093161071665595923674 -0.068923395334887810337 0.061317851889615318517 0.033862654586488294406 0.092286533507910481489 -0.00082936963045930362642 -0.073938902446752163833 0.13526068382375630583 0.023055313856750567214 -0.12935371072193346809 -0.099634735216962769244 0.12917601801006509121 0.13383934729193519564 -0.13991626379908750355 0.073855703020522842084 0.14355155789934742616 -0.10799412819966680566 0.14526218115730549219 0.12461389408649410637 -0.1285119393515391506 -0.054651517340776854803 -0.0095634673822053116454 0.019008278849936485755 0.021213480061576861502 -0.11402266404339424233 -0.017707369813815085346 -0.043103145032911419077 -0.051933590359899688138 -0.080781735971764911941 0.1387530634456236589 -0.11489550699901666941 -0.0011192512636061717566 0.040950740232028597088 0.081637348594080061392 0.029043696062254813206 0.019602261689721275917 0.12420365547429441933 -0.089637170882937933225 0.090556315087931354979 0.080882713322260421651 -0.080723320442182597279 -0.050001043572409163696 -0.059038908584539410984 0.060405004307518876672 0.079093247484474132891 -0.10505250620835981934 0.044015504823254489319 -0.15070492689901790473 0.13157720502390019002 0.054356419273793504798 -0.042110741837950223243 -0.070942071625697308845 0.14369629065904973575 0.13201878070023784217 0.01470676205138400465 0.027292656090397007795 -0.0037818723737627693571 0.011020608202836198672 -0.14348735782134852679 0.12113145179439452348 0.074714155459927045211 0.034084166732744870798 0.13395624608516906728 0.086290184280782625259 0.11185268538023339369 -0.11436054205471798961 0.063469653642269877047 0.028564055017853431928 0.10207337536389941846 0.11683555083354835169 0.1079231816898578028 -0.054505276113981565578 0.063957678121313255026 0.13807815274493209778 -0.12769259561903123501 -0.067532907825291491055 0.15213135782246189898 0.1046798314322281015 0.0676990885853406138 0.10534586337973547709;-0.023796471031946826724 -0.014696119479396949764 -0.060458380239970292702 -0.14484693246139082601 0.0069312559924495894051 0.13240168047166059329 0.058879420469387495907 0.067648587148121941404 -0.014332724610515963984 0.14715809912868688114 -0.13741628138206612997 0.11055171079804952672 0.13604894561054234337 0.082372574419650138045 0.11943096843213740765 -0.07392654636758998199 -0.14236290442602073103 0.032044347339028687871 -0.034943770609495106161 0.091058820681978958067 0.13057182573726849872 -0.066584521126293483295 -0.11902886158859930787 -0.13349975672419475692 0.11262335903237828683 -0.07736931087572002097 -0.080244147582179778389 0.13095469680928670253 0.093577524051104685188 -0.14701978696468567809 0.036834158095920825626 -0.12885637997077223349 0.091830366685052192133 0.11188519960783001317 0.0070103158263189607746 -0.0891706480453732242 -0.12827138833549694974 0.013867654237253610947 0.14298099444294071203 0.0033109803159119305556 -0.057527873717628644212 0.10089489793607887835 0.11800783515140882141 -0.11690256753354480446 0.084125592053234776735 0.039858399329121864396 -0.12859939381116752832 -0.0033187066419516986562 0.034794688860239654515 -0.088551947090308419375 -0.053221822696188351987 0.10644301153914054181 -0.058773952761165745851 0.12736731282521202013 0.11664208207392924577 -0.10971801885263526843 -0.075211872821435488135 0.082424075990536124769 -0.25262177272908253878 -0.13140646691826210479 -0.12183603616675922621 -0.048194773543074796718 0.049425755151920970631 0.14754556158731840787 -0.045747177399329382042 -0.1420560064577938153 -0.11915105009643253697 0.047841277218100330959 -0.12202901088574653887 -0.0085937541953872900041 0.011995164493728364616 -0.14451902330594781909 0.12642632915847082375 -0.016746440608112228565 -0.056540344614676572854 0.14504193680613983175 0.043307950306207508573 0.042935604769953283899 0.04125768264354175846 0.11693920254373819934 0.13510517761464094222 -0.022633794706223144683 0.11406130086843566107 0.14677325919314887503 0.12557005368337442741 0.093552979544398548462 -0.07571907812689990247 -0.12479659940123033479 -0.064754763548630106529 0.12802763174304929161 -0.033265136914653097022 -0.035036599752918833051 -0.080524433595282732257 0.088510801464926264215 -0.022217510458918354049 -0.019624372658385597079 0.01184908579785040432 0.061828652633768257929 -0.028746109495115756277 -0.13898728373849641993 0.042014680238005704116 0.10295332988501579297 0.059747564663352889514 0.050109201417815461832 -0.093704074122267153046 -0.10869623112836461487 -0.12620337769694819907 -0.061970804648407741555 0.13396188322251764702 -0.12686811695390715071 -0.046461629936101811467 0.099660386072861831264 -0.1051611137412911956 0.054371410632708089272 0.11147698873104298911 0.012849018894759584378 -0.11360245546878551537 0.008993219653185200585 -0.13097692078444864161 0.020229685592653839921 -0.057729029375172928595 0.076193184695311916288 -0.031159097077173455309 0.0097062904433612741395 -0.00170176709998262881 0.070182847398899655955 -0.085883201621398480574 0.022525627828213684589 -0.069035296903258908108 0.092567645535272011226 0.13989720537775843234 -0.035881665651087517321 -0.03846526617863043479 -0.11154345803311337126 0.10661650684117253418 0.11101373430238220541 -0.11798649988569862024 0.10736618319043117475 0.020095248744785361439 0.091977679471809570266 -0.0487934674636062507 -0.09085594269807159562 -0.013990838839082085296 -0.12813827915209988206 -0.046723451752478821486 0.10530098255370744231 0.11252692787935997254 0.017616080699047735603 0.040448250853115742809 0.12689922209470400061 -0.12801061139165617608 0.094120351618867933996 0.040148338940457641011 -0.10414564902624923182 0.085040251335631714125 0.06730334197934371987 -0.14147959497576764742 -0.13652443280421300287 -0.044257104234522379183 0.025086619185537974847 0.14818742379848540147 0.10888306401039186955 0.14880955736957360291 -0.04720406051125522473 0.12034409259922977664 -0.018051838769260440676 -0.04744166204436370271 0.1341328595979706384 -0.015065394191626691259 0.099536484062969915465 0.036500440709392817373 -0.10011216555307371479 -0.013648338267902728957 0.11532366020438525323 0.028320506547653424845 -0.1183063507679162768 0.12475531087216845672 -0.12387807848725035376 -0.080937249373714367784 -0.11206861860405165077 -0.13870719078054280504 0.089841921552766906833 0.0091518567819207970876 -0.14007402550124251062 -0.0064731803837563160406 -0.078591661363648215866 -0.087922657610697355079 -0.13531030770456545231 -0.1006547981426534899 -0.12349478916079188739 -0.061028750876962495342 0.13392488302544522383 0.042029375706764092457 -0.07161613998197406683 -0.09305138456676549652 -0.038349213926656612605 0.13628585657657160679 -0.051879734747301335662 0.05834792556452565726 -0.10678516981359120752 0.1004110931302084897 -0.12607989560067514589 -0.010810089733255777433 -0.08440111412845094363 -0.045019902396204729278 -0.068161896962429177615 -0.027631222744680654368 -0.12706172207941859864 -0.010593522130861249969 -0.044591110653435933608 -0.043515413197885689789 -0.065276882091145682629 0.0027049305616690792232 -0.051197569548288746066 0.012690165416890232183 0.038197840164823804177 0.0364319840270479825 0.10997551901518809458 -0.065718854276491434074 -0.085402721071404882891 0.11529824849456830893 0.00053897492610875089199 0.051761235717972968462 0.07537616524560675213 0.11227572559435701482 -0.09748196942001112475 0.095457954032437050684 -0.14356128014936411774 0.080889113682711830111 -0.083077110090503294981 0.14541654287019423197 0.13421183610677292486 0.10114470643863991695 -0.01895556219189774641 -0.089241551356614823298 0.12716932118968443666 0.13032790428249002579;0.11742094211844035512 0.11951074566090764961 0.13562105965564813514 0.12354447391140203905 0.13901981388567824505 -0.13611826262008241972 0.10738633839867681163 -0.0794255682666240026 -0.04615413725375594467 -0.099362042267932423889 -0.083902258598564150027 -0.035111898289680316954 0.14747225547408848723 -0.017541288227690403356 0.0090061480804515831738 0.060637453714504893632 0.13488507164158147766 0.035087511488379470592 0.012769484632914137115 -0.0069475762377805248826 -0.012825806709476243739 -0.072543486734133896809 0.14550565165718779004 0.020571028525422998395 -0.1473039198679916284 -0.016879177176396090859 0.10684162455359132171 0.052547046233148354821 -0.14232420216269697777 0.11735365545346271299 -0.07323706862664561279 0.07183477271194492475 0.011626437432651251513 -0.052217812524938386765 -0.13507029094945219305 -0.15106453519785431605 -0.011442490851952541106 -0.023675921372432642831 -0.021888726122302300942 0.067067117750264568232 0.1531370015389222905 -0.13093181792998295765 -0.13682606470352171035 0.11664361408744998438 0.08703996447818197757 -0.087433343341593708353 -0.013747870762519346852 0.062254723660333410873 -0.096131770022962192979 -0.083294962346924211749 0.11150032337404980343 0.084190724792132839993 0.015969494503835186122 -0.022568031130948323915 -0.11561486095635868654 0.047976346492118335241 0.1425132407552138214 -0.096567314155618214078 -0.12881180828057653409 -0.1302886754030608274 -0.035497784139714015639 -0.12903228337979230633 0.022107494766460889651 0.059901461906892036757 0.0044406676931964036287 0.055184521334210839827 0.086068970402523467533 -0.062594730897180539397 0.13528445248766013398 0.10425119830327533865 0.12194401886149566772 -0.084179108249954295862 0.050657847291314735128 -0.057464813293766049684 -0.13366250010181146557 -0.017170303648843851518 -0.14663619244474312975 0.050288332475525443499 0.11364017868865602945 0.042923779620033741811 0.005777830023133297653 0.012660871298928533593 0.10592752421169975008 -0.070004903232999918239 -0.10695500940514536536 -0.042166366715483155625 -0.062734969187787384404 -0.12778057123473141043 0.14667146088754606792 -0.058741660300708258002 -0.071403168993057236635 0.088153571268279259932 0.088309743739042489974 0.11024119406395313514 -0.10541884988134325729 0.13947577454314047385 0.12256303577653247794 -0.026206886912654363958 -0.051399954926308041858 0.14533392457685381793 0.15352378456789012029 0.0014854096173124678882 0.092831185185882514332 0.075467527849747001456 0.07585501742530574576 -0.12855161496211897632 -0.031307491753616377428 -0.019202145480567197472 0.036481232160379892249 -0.15115676040365788602 -0.023286798664258097358 0.1278596538793118631 0.11498371459080505841 0.036180716490924628992 -0.14389560979066340352 -0.056531355918588856169 0.13034808940986053472 -0.057962322678834408973 0.12646700154079087985 0.075105470762214479596 -0.072543963960994314877 0.043868487842555453637 0.048568788330531263708 -0.11765130232244393194 -0.11986103127313989247 -0.0054818195845859731333 0.11425097564033404041 -0.14214938282929776014 0.10970252191103398165 -0.12429116312343298223 0.044654398954323500093 0.13404816029566002378 -0.13836004021458800373 0.019807037399066515504 -0.11932306194219488571 0.13880616342313534251 -0.061151409330118332297 0.13722472476785174678 0.044132237372550106591 -0.0049891019229622779116 0.15021329274450712088 -0.030809073946235776553 0.078073535921904524404 0.022638331554213995261 -0.094685480372094066315 0.034291449176242765062 -0.0057965858573592113356 -0.14154454564730412081 0.0079265670417112792101 0.030735570269845725877 -0.07064443136207312901 -0.051309535651788133748 0.080952008655195556441 0.11579409651486062549 0.11204929491573521749 0.12615761469767483582 -0.065359935159965451557 -0.055484940653897918406 -0.1424892290092472924 0.095752880070510137944 -0.13735301309176295437 0.046921241912245198469 0.1310909282250262986 0.13748635490553764993 0.064563903530396871133 -0.02708522671290602285 -0.0088358059650094737669 -0.10900586814762842913 -0.032999030312600152737 -0.13940246961137048309 -0.13696887209702943156 0.079336035925307010763 0.035805451515796199446 0.056008475037136420949 -0.1259068729201529846 0.0015439123522890773992 -0.046364654434737355426 0.10366651812632259044 0.072587415600734395138 0.12127447650313631644 -0.06134510247549931905 -0.094072848845473761026 -0.094329825108800932632 0.019546901216680481056 -0.141354189462676888 0.069425693321816098202 0.068210514695581647704 -0.072116148891382458874 0.10300619593664397944 -0.14692884231459765743 -0.072456030354685938 -0.066384404082679329684 0.075890318391236624707 -0.022531926606852742401 -0.035354436586794081576 -0.037841198269083303751 -0.022471341358471796229 0.044990942466682032341 -0.1248229410673314943 0.14158763148961539535 0.09093987907015610439 0.11295632705101393833 0.068352913497663508879 -0.019182465050337303009 -0.057799373599562421655 -0.11846336945589691636 -0.13952051543444993209 0.067010436793144681489 0.066474196112307190609 -0.054476772358132780072 -0.14579393355826941736 -0.12041738608806161481 0.06269307219399138098 -0.11402481174390752261 -0.14489691046778077621 0.06411754406133479689 -0.095014581436448156126 0.035560591963634258228 -0.10637864075731896796 -0.0049289890039101915548 0.13782727808321673657 -0.11654837392486085135 -0.013964248851106603883 0.099021617753827118058 0.056329382686230958233 -0.07599543855804123671 -0.09134735311208871944 -0.070166427084781241019 0.020064759044698111251 0.074122760830534359378 0.13100420748062691079 -0.11987151432395300177 -0.0084380717771372522329 -0.028347995291595498579 0.059706876261426553021 -0.0006587718336224016296 0.096830999310230064792;0.014863519005622076105 0.013084829362552239176 -0.038787421305293418028 0.071295362940511211591 -0.14957105696272771089 -0.024437580591812984449 -0.072481321731576481282 -0.10524996578703897654 -0.10568450004636843753 0.018403494066413457475 -0.057353170094440082682 -0.011938908719060368352 -0.035907811282791836371 0.13693073466644478664 0.012096147138160292037 -0.12907849602832094371 0.089001889254333776957 -0.095902317281428450801 -0.10657750962137242656 -0.03542160656440961064 -0.027900959284021448203 -0.073787885365722352682 -0.022730886424172046939 0.073236428475564038787 -0.13668045820984600636 -0.020907489492624914407 -0.067367516920432607419 0.13488322438289684913 -0.02820082550142954253 0.098388800086191996463 0.1188144755521123308 -0.028182468642220948746 -0.15687762091195148195 -0.099456148426561849507 0.12505451136367778942 0.13523231563018198176 -0.13240019962662932795 -0.14010349538830157989 0.14441816102194626747 0.0019685590175598528112 -0.11494567860261768744 0.11273219785410835969 0.00088454131202357654581 -0.13776321216783365964 -0.0045167300045543630135 0.056913792344774317977 0.059329852183591089143 0.10945353461021466168 -0.025910109197531019931 -0.15042408528301684512 -0.12670211143403703469 -0.073456773010823206427 -0.059521939496020345728 0.10133891556600345407 -0.09480469668128622962 0.088964003965768673199 0.079474969898485542386 0.050003017638449089033 -0.21698954265693531918 -0.013942372990945922293 0.016106001041735942825 0.15316622443455346625 0.06285969957261464125 -0.073753182626078606088 -0.054146211948709270512 0.11091090748486008566 0.13513116504609537505 -0.046444567966703667605 -0.09363700210019763881 0.10997929896215181966 -0.068685316854811717668 0.11462359663078580674 0.026375813461964561779 0.15649311423484466022 0.058051629746034963397 -0.11504490783000917431 -0.069522657532790521628 0.15361851705203197205 0.063647335923850620332 0.1445448532206961012 0.0056621985090336722155 -0.078641968118010399658 0.15309190623931523412 -0.097243234517469648304 0.050470655169975536802 0.059479759394867770528 -0.14981792263395132814 -0.1443234320021644923 0.08138148951504534101 -0.0686226112740757066 0.11106543542198041297 0.13197276142053779302 -0.019711606265384731124 -0.12074840188391083862 0.10032041228553717493 -0.10834951195742856256 0.13736093274891783556 -0.023869358205560107372 0.032775305397614432068 0.041380694433586120984 0.13778003445488248846 0.028296801726128271992 0.059715939174436780124 -0.0042337432349881191224 -0.11790985287362136524 -0.10045666185267933257 0.098468610110867049734 -0.0086120849322161834721 -0.039702034605267874645 -0.088617818366529169105 -0.11731595661376389983 0.054691132086031601922 -0.053188288194950340826 -0.12044781937362052104 -0.057164723487971302873 0.11842422096617799543 -0.0026511960789053598715 -0.078039308951450642171 -0.055639786530625567895 0.096053927236951414104 -0.0095774459312135910155 0.10572110365409634336 -0.089613241292178319464 0.15336100320446344192 -0.13715882756949993038 -0.11162474542958557289 0.074345108894612696449 -0.048501110271490413539 0.1273497622026633358 0.086425742574124872486 -0.14017431277451206095 -0.052572794450982618386 -0.082720776257984157676 -0.030970984509418191671 0.12977335021538716209 0.1471483910417392682 0.072805229053739345391 0.14901752567993689635 -0.10633489261462232556 -0.059980053528581586675 -0.070556020997879956291 -0.15230470830742426358 -0.042984047573009318 -0.055756328956021228294 -0.12100157075458400913 0.13626760803331486316 0.0089460069146531148027 -0.13696565575172900409 0.07032386013450607487 0.091384129343341211071 -0.0030990916237359448365 -0.11214777520507893116 0.087328287132881404764 0.13056316017531768847 0.073697973156398366434 -0.10602560090724934272 -0.064670430675861589886 0.013694604574668227046 0.038369577353581610368 -0.055213459479487372872 -0.041154210601249553714 -0.02323879010541819029 -0.010073248679738749586 0.04935971307809695896 -0.15124336029873666765 0.069783826992818251411 -0.093049271150732151825 0.040975679678274007367 0.091862208936183464836 -0.12034405513870939652 0.067888671062831376646 -0.071495665494501134396 -0.023140193083705885846 -0.003113819137124544667 -0.072961090885376736481 -0.039395493881716037166 -0.018693104408478117967 -0.096543268455421216157 -0.11503213348307643471 -0.14845023351163724734 -0.14444124119326859357 0.13853184822030908951 -0.07017614550351405911 -0.13784201224352746196 -0.082409400638541671635 -0.00085295398815212755076 0.033206859385279653696 0.10617358490150925754 -0.015652643026151893957 -0.038252573698247790968 -0.0086210695158598828897 0.080938339118276400597 0.009399762669231799192 0.11089281515288981761 -0.048333883176316892738 -0.12294751139528867223 0.098344720425047479906 -0.045597520772010680101 -0.11934133660811192812 0.052101331677413889598 0.074679614979243358341 -0.055952849786757366535 -0.072202659631495538783 0.14799695421917066773 -0.07602334163120652577 -0.07205090109295025913 -0.10471497613761694689 0.031673306309469156927 0.045528621751831623021 0.11870344468296779861 0.14245378313026463291 0.086630659860854219989 0.066852762780644628404 0.052280267932668635089 0.050946196666166072842 0.075610025616200296494 0.076276597507103846563 -0.06362640451138992792 0.10471630347988106213 0.13880351606767457606 0.10552995993602209968 -0.067363375931481866976 0.10740365002286909879 0.13046474739718541547 0.017972234590301665313 0.043915509637833499701 0.14708512312456439863 -0.13988282958453918114 0.13122564853250728856 0.092616439016249246796 0.012065389820922664196 -0.0013330654450971562118 0.026445085573487611685 0.12123191734602534186 -0.12703441087040395763 0.11807513053843475548 -0.10415659503771712568;-0.015596166436680032261 -0.075338355102094786697 -0.07581970587495895364 -0.094518044939693929285 -0.031235430136197585987 -0.035857868800999538605 0.0074187609396473138887 -0.13808097036723671058 -0.13645505208633415539 0.072441407812199307137 0.070750943910026883876 0.065815924498867375836 -0.058421140900890976277 0.14978136426172319884 -0.069741684516045635012 0.11203493088332384942 0.14467429118289029666 0.09320257022554391535 -0.062102344384146954126 0.089110547773485287992 0.14266650614446238499 0.034040149199451433248 0.15047876919197988865 -0.10838153247722616401 0.029923148649845607988 0.030659293030150577136 -0.071066044450311394165 -0.043875289736207134794 -0.11423939504215038787 0.14635574544984797374 -0.079773742511060244387 -0.15174541585768289154 -0.0025064137108593499866 -0.10285675323442459994 -0.033312917582769788205 0.0028207655118468563833 0.064999326904389351234 0.12964170703201657875 -0.036437274405610058092 -0.096080176742988118721 -0.12681735162386842397 -0.021692964049727498504 -0.062639826295393941091 0.06610626558371622552 0.097043389240372299187 -0.058858527818652653374 0.14467532528152715621 0.043240719606392585828 0.14590349972184737948 -0.095756626050479298762 0.1328145697379873591 0.025943422531443962459 0.027788106969949946667 -0.074963354651371591486 -0.14012010571524932678 0.021187153649925880711 -0.0089030032504615833761 -0.073864901213647998768 -0.041275434239562168448 0.15714071369831700276 -0.086431781269884530583 0.1297424635950008287 0.011745759033108335231 -0.13979775482262737918 0.053398727598497126856 0.12415332520826979912 -0.10367546129709791225 -0.092539375784715813267 -0.10941009712818092203 -0.14126555807913868112 0.0020036220932589925842 0.0054578268618983407159 -0.026328280908462703414 -0.0034816240121643047233 -0.10822846351178488922 -0.11990404365769515016 0.049999181200855898066 -0.041610025907707834381 0.0080776903261690000124 0.05857965801276299872 -0.031931224950670106244 -0.03850806748058795137 0.073922012117610957915 -0.019647633703944233918 0.10549196707930917627 0.13942874316281442248 0.10805403070648035568 -0.069463147402894928617 0.0084786029419576421085 0.16950340005065542281 0.051607375614914553774 -0.10951573885466618641 0.1633103863173593906 0.027657688784918577768 -0.11105508579361950128 0.076774276584002446033 0.05998789663166192998 0.063621912478440414973 -0.010342696290732710657 -0.015491663889352772984 0.14172489048753519891 -0.070015073215633036319 -0.11433065294311502147 0.105359113899658699 0.059709071195884283467 0.15895409684943170858 -0.047234352283939448625 -0.038058116874157776888 0.049609330147541978728 0.061901192020247124137 0.084445120802799769621 -0.1136302139132416289 -0.032142007543384490398 0.078343258796692960555 0.0020335506799931011776 0.14395210860408511055 -0.15174825825101703747 0.17202130417328403977 0.090445777567395996277 -0.13143369337903904048 0.030927585373036792921 0.054736712652180496974 0.11152586217977766836 -0.057607941050028040053 -0.059324577352202666203 -0.057583368624423446336 0.14741154854305740796 0.11690622568347210086 0.068746492607471065828 0.027881320709587500972 -0.14326545316166031108 0.072652052847517301082 0.096181409887870494835 0.023044376367874715161 0.037926267498258135757 -0.07691827364512539289 -0.13147808679553973921 0.069201653620710734671 -0.13704139727422881556 -0.081469970799824376062 -0.17092119678982248265 -0.083141949657482241975 -0.033698909905598303793 -0.10254485361313327163 -0.029121397288029933492 -0.11417577798022583713 -0.1322012655277149118 -0.061544873227352477063 -0.071296124844373601204 0.044163388636415910893 -0.06499869409191197378 0.13166076122283057459 0.099734883647129082829 -0.091683151627909992287 0.0018625042142593386391 -0.13022307850435618781 0.072003757234468820925 -0.088850864670879839413 -0.073237400183320297553 0.018514807055309199374 -0.14775015827168783145 -0.0026730906199213515934 0.06676578618036110857 0.05621630942281832799 -0.14942961371100915713 0.073383921827520001702 -0.058981270549612413445 -0.036440310700658284926 0.079177559858682564076 0.025093826069682301227 0.17145083385006185117 -0.11332218045130895701 0.06687147995512603138 0.1739476886290229618 -0.030466399021336191405 -0.098430381076327747025 0.11177827918002837537 0.080295297043810512361 0.10056286962934951612 -0.042101066552907094598 -0.13213855520933162624 0.039215391181944100896 0.0414356503409546717 -0.06155264543705701169 0.040571302916065296595 0.025941638886782802942 0.058695405559069505075 -0.12371534498596639673 -0.13277596047174738958 0.029967917597026480503 -0.020166946343043997553 0.12900997480658471517 -0.028103556267212378983 0.056499334957884624064 -0.052002766389938677449 -0.053066917965061140283 -0.15158585247505479421 0.021356906941002003902 -0.079351481226153167126 -0.17446375546647432953 -0.068404817492093802911 0.048749908924438235813 0.14460427688056654016 0.094041499885871127074 0.062853616856166666382 0.12937025947453784092 0.12685887344855670267 -0.082837741659484612211 0.113123595687839959 -0.089889015818390316515 -0.033192563355664651825 -0.10373991489472873806 0.095697435345158107789 0.085991522798240085934 0.1111060123932961774 -0.043352619985330659302 -0.12380062507277618533 0.097231551455712716958 0.10906619816474646956 0.011780752741077758425 0.090809672531248220029 0.022006858134446492803 0.037460949411591074054 -0.058915175201208626332 -0.032329432867619557757 -0.027977537596827532079 0.064064750023200181528 -0.16307636559349109051 0.17031439755808847059 -0.10685887621686411542 0.10664249870696684841 -0.048404045885261731685 0.062965739178210744509 -0.12036390728235794867 -0.053778841939222533919 -0.074670377800130818824 0.15164175631420884205;0.087104936335183735796 0.046749474622596653983 0.00047842405315579760632 -0.076240307216431810189 0.052682497400347257088 0.11043147053154496462 0.11446883551019480796 -0.01629841565206828144 0.12725271358490813922 -0.0025517415238733819061 0.15406441948708460288 0.10223287240345967086 0.047387112286412590156 -0.12179247598414137677 -0.07887499485807041022 -0.091325320023012857007 0.11176023433860711453 -0.14495790484410900345 0.1613909919157529016 0.15401370196681948843 -0.049037479922503658669 -0.064501573930617006614 -0.042808378740723081191 -0.058699240673850003325 0.092965004364486472643 0.035243447928493605581 0.11292156919915807833 0.098734129867287204196 -0.020307362492599029952 0.077702060581252535565 -0.068099618415340013033 0.02433156449887604808 -0.11343587437627039582 -0.058611397678733377636 -0.088567265816351173346 -0.080375341471080816169 0.0092370741571325253733 0.13537596055476466828 0.15209415599619108272 0.10981741187106351665 -0.08537014012618836245 0.13823135517193260724 -0.12638925459848016075 -0.030117206036261313928 0.13448772587390753208 0.051258413852134331046 -0.10320318902180031229 -0.038936548412404674291 -0.15412320191397541058 -0.014386556291301160274 0.1475866544006190495 0.058799544858213793896 0.1219762679897814367 0.023574823800979274185 -0.13963062034484574614 -0.028889128386781003088 -0.098059114874333525025 -0.010888933472683704623 -0.07739120300516802442 0.12373547785223759643 -0.10041010373607454909 0.03741186351772469304 -0.0039687274750410048152 0.15259099190001010338 0.15647592346424712972 -0.020359464657430065976 0.1080625609573960394 -0.047234009208278450453 -0.075313799830366442989 0.1496568132072161883 -0.072077264237014188053 -0.075127912375260730293 0.020356981112660446631 -0.023266791516555616198 0.059099069879783860948 0.041892037979460845787 0.026155785615075231171 -0.016595665380918746962 0.019448130910389414133 -0.059602234357943227605 -0.12711022745426353575 0.10412363551342215806 0.029586651012976809133 0.14805979250432366179 -0.13759323067955753217 0.14389827656676618117 0.074526092924588810407 -0.063390598802801220724 -0.096756547280674939926 0.068547959174068917587 0.029127021501051224284 0.11086348624083550152 -0.091896625044833368801 -0.020030054774705860487 0.035171869636046786123 0.019152649113545933829 -0.032268644166146588648 -0.084063809737719832893 -0.02154749843910244364 -0.15008057335702354451 -0.046525207808460582182 -0.042647063688513481283 0.012614843078749136268 0.0034826599432997902041 -0.0090416077480537301869 -0.046157033451469819951 -0.039776727498291544749 -0.045735548185023240653 -0.082117952456776166503 0.14180233560026939132 0.10760574257301075418 -0.075908814081418904407 -0.019673139195729327788 0.094307549833752321589 0.14131278287989015863 -0.069407586970368001511 0.11780563860559543909 0.019989626155513921107 0.12657125288593118473 0.14411726022128187874 0.0078264551237877972439 0.051189210776390881019 -0.14660531985948574429 0.13532526519247334296 -0.017040537153917210272 -0.12693695663077278479 -0.0073374229166027222365 0.0087841263858573857132 0.026467356864185050819 -0.14665246638127227286 0.15077281476064002819 -0.15776327381443774889 -0.081027454226443862417 -0.040058409731524406705 0.12360276291384045266 0.066403473592738404552 0.019826513079926517263 -0.1355470837121799943 0.077924119468845753911 0.050125464647874110047 0.16200291041562397965 -0.044086972628351019099 -0.042859444692155378165 -0.0081689069213500137279 0.1518482900018870152 0.035875261592036009062 0.095925761372029072493 -0.071519213883411009158 0.054155056059905649912 -0.061019426143508560811 0.016224124145127773872 0.067839311979571881306 -0.10424931784027140214 0.025782782077297068668 -0.12650926098431386491 -0.1342155118641031597 -0.12798307858951446514 0.0054353689538639993889 0.020915747587851959977 -0.090558552655864960057 0.07928886598729879831 0.097372039364629445202 0.00026237498957142296567 -0.010498700549524397907 0.10020853630024073588 -0.10009271744394497572 -0.082599866135066757344 0.0091976243640483883873 -0.10815456130974282489 0.037398062790444497328 0.15352646433130853754 -0.038798776301513938913 -0.13487923954058775311 -0.03943975091370470476 0.1433724644772147172 -0.15629313363930508185 0.10853028295127777059 -0.12524998810332743648 -0.16056032966056885125 -0.026470021629890875398 0.017389892177612518986 -0.093026542736904471731 -0.13937294744519282408 -0.10679659438709929176 -0.019599596816331190524 0.080190341013758784094 -0.021257238735877998642 0.047870329228035822522 0.028053757035108248252 0.086769654273765595143 -0.023569536173822302344 -0.10989302840218294344 -0.091925001887089990982 0.013585239816278314728 0.13350001273428802051 -0.10027907193756563364 0.10727190812319709057 0.13350463870251572107 -0.075842561434471933435 -0.04397249251563886685 -0.10258381499825580674 0.017569178738940947893 -0.066035921983833040239 -0.10927055112808720105 -0.15342995969356645891 0.070859617105597988429 0.065061609269621026308 0.10156593431014467044 0.030202532914183278373 -0.14120635683128587856 -0.1534932344052288844 -0.0065899955140818729585 0.042951137857733127923 -0.087860033161646547417 0.01598418919793032078 0.13559349296157563458 0.09830115100476319312 0.018344813147514564544 0.02195056363444910022 -0.049261528500845148948 -0.12254025299998365373 -0.055319232423460644454 0.093713209671994437966 -0.12980406060594493201 0.088607646357436509188 -0.10730025571971607556 -0.16255527085599996706 -0.070340718154799669604 0.14144455302535560715 -0.085131102480602224847 0.028263010989008959667 -0.15117727664207178395 0.15422135412928084097 0.014386762944652754445 -0.042236994781807195298 -0.10035349484399977427 0.14874597331949854229;-0.0079182012772994209843 0.14516212141205681041 -0.015402415095699508243 -0.10578606140807868263 -0.14696739138432515781 -0.068752150259044991776 -0.055177238069073195059 0.10506692818975896242 -0.06267639892305205962 -0.10791645289527369844 -0.10593057155848464856 0.018698917127980833192 0.012663098816522470533 0.0033596487777642759613 0.13527210508651449361 0.12691546934419320469 0.076237281370283738191 0.12198046705536777501 -0.14442921763420257797 -0.14252806168043616331 0.023827285879747028829 0.038798776266407153379 0.039808049092958368298 0.11233353220888786517 -0.00312236494487390338 0.047937670684040638303 -0.061517496135388254064 0.1460072129370535432 0.10537295187958721499 0.12449088715303401054 0.15228394291932584315 0.0034900789440675998934 0.03086115405298904199 0.061396266251371033051 0.08522518909901591333 -0.075125022487005296834 -0.12824132737319113295 0.032241884666339079568 0.025777605815751329643 0.12488139179816150348 -0.15439388016315805374 0.11905240718644499731 -0.099622017531564688309 0.0064591705456816033912 -0.01062350159058562081 0.00012707951917724963397 -0.0077290158626898428432 -0.0010002151237595833556 -0.021034459090015455301 -0.094378798639847119589 0.052511097888218491447 0.03833391280468101403 -0.13497876112684170646 -0.14039994538087627318 -0.091524839035322144709 0.076963147749207344583 0.069198998671210168454 0.14388988264945121176 -0.089427381985671627884 0.063856140321145005156 -0.14662240149565788916 -0.11575038995990023782 -0.12912422999966999271 -0.075237016944831772158 0.14293071794282430353 -0.10783129907927910263 0.076975705854737855316 -0.058262048065842168831 -0.15458621579037284954 -0.046096071077687060524 0.079373915309269210683 0.003580547411080038829 0.075611653339379039651 -0.027317614157575949296 -0.038393440775150493305 -0.093244788212570928199 0.14836370356394956715 -0.043170953425478074406 -0.057497239360826582488 -0.14873081123000342352 -0.13325841484324502106 0.1114562998507190178 -0.13633876421277596469 -0.12145441346884992828 -0.045926431723607344382 -0.028539297093032423708 0.13802921097566817066 -0.029800073045541171368 -0.096032049882593922829 -0.011794840970261614987 -0.058322461711178823218 0.023783504521440568258 -0.13445840747071707844 0.12745535097816895753 -0.036700725301015570123 -0.099112716755214214093 -0.11263478804901545793 0.078934350638673489442 0.05037600938701061043 -0.1103567405151302111 -0.061844069984894792236 0.098667252605679350852 -0.1264182095707506448 -0.070945509315894522695 -0.050381647843228911932 -0.1137743411208012867 0.037419778471406053844 -0.067267749839320614691 0.081963075349852393403 -0.020403897700544470356 0.12009235583341749953 0.056481339849901800176 0.042626444923056332204 0.013643523255038727399 0.0052051683270344442644 -0.12386496935427661337 -0.0081663337941569550532 0.037019648048011298547 0.072176760193741931748 0.084485542660331411358 -0.0050086495174116174578 -0.092243883839874557529 -0.074013398395178398026 -0.10056597648201008599 -0.019483208128197884723 0.0635644845853284568 0.042885305390344297116 -0.099879732157907810675 0.11767408315637209459 -0.055170656022092527671 0.14518817235200112692 0.098103300039439997327 0.061190377680293298046 0.082632021131156668803 -0.086355438581417420796 0.12182020326666230525 0.11880914767127341569 -0.10704535636710722779 0.15312394914138710567 0.14569326259729034612 0.010093809362630818197 0.059413907285680279957 0.070075660480579463063 -0.11141643279260984856 -0.094909384629673229639 0.036333536120904293132 -0.06051001900602629574 0.15093195504382297956 0.0064745204112843495609 -0.039870971395429687101 0.13237334185367155559 0.14362017582559358231 0.072659280967800027318 -0.057784697361513079339 0.087826960931459585602 -0.0039399260922146064554 0.041901981629191807632 -0.041144936377357041457 -0.13951412406599500438 0.10945391185800643075 0.082902021700616002065 -0.083418200146832183206 0.021488610241347211316 -0.12573959082390576136 -0.11272097847264395121 0.041730744183486559451 0.099539138830867693319 0.007725763746097869325 0.068298173368818534956 0.026441466490315243543 0.1338288535285197256 -0.13026446318047130157 -0.010928523109523266207 -0.10493563478961738522 -0.14384899521907446029 -0.12394766580986200932 0.082445485641922958142 0.010378885911963427538 -0.093977277365589681479 0.086900212622777001092 0.018777449911069398619 -0.11016775100309834923 -0.12129244215212767188 -0.017357180336522483322 0.019628144219544996912 0.019546432710320832404 0.10806023449017572446 0.12079521324393945048 -0.13835905571997356156 -0.022891076678863718497 0.14970296214242118094 0.041308601539427447502 -0.1124165272725774628 -0.13700809126702012675 0.10628858129207933991 0.00099937351041038302753 0.024156386010540143588 0.1547553571425147878 0.07380971028071445228 0.033120550977266204062 0.061359544714419150813 0.043361471505447654606 0.11370137010352923679 -0.15577087135065242895 -0.089008826588374223565 -0.040146083479429155172 -0.14643892113336173799 0.050992746688413297107 -0.058305569819757457894 -0.11610327520798535694 0.085387406617714295409 0.083004516641166814495 -0.057225476274331825433 -0.081479828963889527893 0.14343016205360525905 -0.081247412594967427513 -0.091665332091255644076 0.019234936323748133558 0.018767045036435642258 -0.04902135317587394403 -0.037301866345964218574 -0.11701292461447890259 -0.089668553530998271195 -0.15612407426515356734 0.13035650217432578901 -0.14188248293683422552 0.055268966206901581906 -0.035489026624508923646 0.030120350690116613757 -0.14134887675724427947 0.10037232904650275622 0.09883255050006177489 -0.13578781191064720479 0.10108069086994464492 -0.14497158612280575118 -0.13453617666123990348 -0.0074837770904326028631;0.12688614901967151805 -0.010054447250201895003 0.0022584088972949722084 -0.14029156511475518454 -0.12440633717454423202 -0.11540373058125304173 -0.049221301465346867232 -0.08356489259730760788 -0.054359727191014464709 -0.10568174021670916074 -0.13008812615883857955 0.0013988484936273148668 0.14245341859934090856 0.0014342925151538444845 0.10014076588109578625 -0.087251619772806487951 0.051311976719736238084 -0.13801070531770243122 0.035779072113099850971 0.069785377042193716401 0.053213623057790808424 0.059964775477791658342 -0.14412353148391598978 -0.1371580083238156389 0.084483795146831949796 -0.10986872670852500244 0.070284538074002492203 0.092128351487346826776 0.13232069163723925165 -0.054612918510948744999 0.11111162583489792022 0.11445106908121502332 -0.00056213945282149635659 -0.060087243356769112768 0.12229231539526147499 -0.0011639030340232783215 -0.13708970364829892175 0.071455452179501235954 0.1466992219012705212 0.11700372529442117087 -0.13915596355636936088 -0.0089423964224721475685 -0.039667603679333224287 -0.06678568354015528008 0.02809135812646723282 0.017519201342960012691 0.089604948357517033575 0.018494474359624500648 0.052680908856976765842 0.05841406989654816112 -0.0060855893273907600907 -0.11313434502829086692 0.045818127607896316777 -0.066340894824990878642 -0.032709784325079552247 -0.14435277143281863288 -0.054056031435911165717 0.073430955476298617746 0.13456023998425942212 -0.0052027516491161733894 0.086708539344933235893 0.11584161915151383604 -0.049317060476132351665 -0.092835917727762520824 -0.067555448262461723075 0.13947890098914442203 -0.14071211340456693528 0.079378349647596602168 0.12218974133283248829 0.1095617816649180204 -0.15721508024148692084 -0.087871444060870954051 -0.0058169157092158620126 0.11454703706345287229 0.08376439599626718524 -0.1348350359803293097 -0.054133964772254704323 0.077900818532124660454 -0.12527306661625928208 -0.13603709806935301851 0.032002457362523113737 -0.019305537212110916723 0.14941086994120827969 0.094444163296055122503 0.04808981073635459208 0.11803354948249533685 -0.15001064677467920716 0.14424540411967631814 -0.072035994571337302883 0.10554965047231255892 0.13528143508934417638 -0.12487141661401443549 -0.038216098383585590803 0.0044770614031705924588 -0.013374981063855378646 0.15682656436911907027 0.096437466938046417786 -0.14625124396518113246 0.1331946674688774257 -0.0012788755154598504312 0.052896314691368385985 0.051429704140611584573 0.099077190009928595149 0.05013498604556117233 0.053825488954014392984 0.050830790296862299327 0.047724146408856506218 -0.068337203603582238887 0.080612414376057775489 0.12595801310566293041 0.11884468416214469255 -0.11076553340981752649 0.14002881310135523174 0.13039283322953115762 -0.11999654983642386863 0.11190430750686707062 0.06947405732151755442 -0.12729406352374431077 0.12679505652129088866 0.11615990204957608867 -0.086122982150388008304 -0.0030488850662594578662 0.14361725853464515912 -0.15186910322311453214 -0.08359808298404296234 0.1573838580643898144 0.14778814676136425854 -0.11751438530739732879 -0.0061730012096740541697 0.13832759233117356001 0.020260776216359199092 0.061902490301606431788 0.059715679957100267772 0.079262266708774259394 -0.037507031551725820984 -0.031134613058109411599 0.094814333922891097517 -0.060062026616635039167 -0.062846144693646591173 0.11789092659839338351 0.0034121036821145112397 -0.12984735590779156178 0.030882877266995640425 0.14925399870687766635 -0.00024956911385779883541 0.11678662582677695747 -0.017751520016902121862 -0.085436457245294930574 0.059207615686681792921 -0.10018489992071721861 -0.022074013864691651582 0.030699131964040698994 0.10626882127597438166 -0.0084904946998763195648 0.080358758518754985767 -0.010131553453228211645 -0.144446476509149907 0.11073565832999376912 -0.15282507780567058941 -0.062737576349419163502 -0.11228668871514950467 -0.13023178747558519786 0.01231820052505797243 -0.024578351073698618406 0.029243007110961831418 0.15228697915356742554 -0.13755084695363192782 -0.070848354190528234353 -0.028107247095217710586 -0.11118861694082193825 0.0076634748634075927978 -0.030575486131131125733 -0.058494916002310493042 -0.12921041517021633616 -0.14393144071959013131 0.11815173929616777648 0.00084262106519491239767 -0.097043081446447812533 -0.051431691936710745294 -0.049566589170327135516 0.14467627014734818491 -0.1325879160317976202 0.098476243465258780918 0.12456227294597585487 -0.10156020106949731341 -0.13367007150234494484 0.12077167327441219735 0.079632338296423757495 0.070801001549745778973 0.04594222702128070851 0.081537897421291818945 -0.024590221763279369177 -0.025639903903264670004 -0.095074511983572002061 0.01916096481975971752 0.043488321247658910662 -0.083895091098816459985 -0.14317599756036974989 0.06440392583272865068 -0.11571864910965669326 0.025871490468270117585 0.062652641899967859151 -0.11911046563013240329 -0.034284220814411396627 0.057410977545634941932 -0.095814513781458873765 -0.11121012992963423549 0.071118910943128735291 0.1028013076692463057 -0.040048369220314107564 0.13374851031241541399 -0.063028130002662149933 0.078957611615686734696 -0.10063495602082561664 -0.04057375019003461869 -0.0067697880338872416447 -0.079827908140474135301 0.13856866300904238654 0.036896685505846307795 -0.0010706288906874351658 -0.13077817631059421299 0.073533261945363262435 -0.016901783365392174935 0.08030724804895764124 -0.066122906109778972761 0.09010058646250196368 -0.058577171030431959831 -0.03254973393146552707 -0.068425714470835008463 -0.042803455495548099752 0.026868402350964465386 0.061100450657642628449 0.10607858479641472937 0.039816238123145011873 -0.050640036918132590171 0.039826508665710157187 0.12373664524086891436;0.037246960534400110066 -0.11751309251622574226 0.10110179986684676712 0.12992388428456461136 -0.038699291622977374794 -0.10499031880716712395 0.0049906801079999552756 0.0051507935213016215262 0.12991825329027945068 -0.044507271348809274158 -0.11013620229822485008 0.042253439344143634004 0.14941485283788372151 0.034898733382320877572 0.076494334599102278838 -0.027633488721493695839 -0.085987982450385275213 -0.11843983367486013436 0.16107257920907935844 -0.15088904811792627769 0.15324928627705194928 0.078447663684167556752 0.056685898539686863096 -0.035793932255726773617 -0.079557871381465555816 -0.10491069463790057836 0.096116512575849258337 0.007487820597276656151 -0.012202990047459737893 -0.070070970232473564487 0.15590556585184237037 0.077793656579264292006 0.12164248272296583619 -0.12679140613414818795 -0.065922008411940166694 -0.11174716329586342756 -0.012069769279269504381 0.089665189410373172252 0.07921250336735635722 0.099655468493727764057 -0.12977241548338763755 0.019719230578255940445 0.029997037790443104033 -0.1557118276771612686 -0.10894328187068849645 0.0065102648769315013544 -0.094329068329963045025 -0.11643573934171966289 0.066967894373251624085 0.13905555448399140039 -0.057056079715160017141 0.03205448705744418092 0.087701479155544548316 0.0022564199718991635388 0.018609874130719392116 0.13750174537137513364 0.00012926383329815257952 0.047269460191939088878 0.12115419683009144569 0.12558593292532030383 0.12214485621880769028 0.013554203729148091642 0.157401702191587195 -0.046699635162637892494 0.065037577706910806863 -0.058738796886595487368 0.023163594399519784467 0.096368049840040714837 0.040849948441678746169 -0.086264981710940102921 0.15232291641892567458 -0.022283208674964739143 0.050395255298121298393 -0.032066212831878396217 0.02033571292820987586 0.11442183959157284368 0.0042077451806879313453 0.13632210104339528844 0.086222790613260505421 -0.085996894842172239004 -0.047886385406626798267 0.15502801390253220792 0.098562474504357774907 -0.04571997569625596558 -0.086086534085044671971 0.1138159472000748601 -0.10434964283826718423 0.091309519174529410468 0.0092967334528800370241 0.089929315571680615293 -0.13502691330380267587 -0.028668376119238669908 0.0098850018773419794788 -0.15457043589129682015 -0.081758481017654802137 0.0078005054966019645238 -0.15316202224724656533 -0.080306127202443469693 -0.15177952261191773875 0.1307779388153298139 0.11399126314292867823 0.048532687246251392243 0.031293094119161007916 0.041963159539139628651 0.1049396148861456296 -0.0077482296576468134494 0.12493840457038087044 0.042220406734137475024 0.10628035288313371354 0.080340970771902733838 -0.058744077723612668496 -0.15765178451957853611 -0.077312927277181572872 -0.12105671079172475313 -0.15266196558138242501 -0.064387106634405458228 -0.085078989162041332439 0.11594343180173882768 -0.13393370677606722396 0.060596682803659325522 0.0073052967746186255049 0.13992316639253754573 0.096489221254419541007 0.13223648917519029156 -0.14388252050347305477 0.11426914414653836782 0.084365334550900963895 -0.020537662551708361219 -0.010827699148543224253 0.081643725580852880008 0.15567544415932160762 0.097689817680191234905 0.13770659791532269267 0.069648459828264633331 0.082775756546002055014 0.0020557087000697051721 -0.031190347752548003291 -0.015692968497277352824 -0.046712134789979140037 0.062249546798306645834 -0.095993897679131467982 0.0044018262816179123259 -0.034367394586932283052 0.018854081420929046792 -0.15755393386456051363 -0.072135295718734435133 0.10209264674213851254 0.076537818647503891301 0.088064211962156635494 -0.07891043015403455263 -0.10537782950988021369 -0.081270510565181239282 -0.046481710369771472857 0.11287637778899585472 0.07115544022427496007 -0.091215740238702242015 -0.021337916338090935631 0.048937983030970529097 0.11819527642262009359 0.11979861859811850866 -0.062777118175573923264 0.026225381831335548011 0.085681550561304553604 -0.077566053106947710494 -0.12226172797825335392 0.14576296673303312801 -0.15951708560009833504 -0.12828922158216807259 0.034698522146216249917 -0.034253650508198708879 0.1105533025737223396 -0.14812598537160892587 0.0048369744220821226863 0.081042670137764893923 0.1604687594307012688 0.072918293910688020132 0.14301526641311892996 -0.12516299176749456912 -0.14487435820527619357 0.11013534458153684259 0.018788890463046659107 0.010769659921138357433 0.080489900675091624604 0.053965161202964753717 -0.033401431756748027613 -0.1311079089758450944 -0.058171047497507365198 0.048514257568651270036 0.10947128392737273672 -0.10550942173248946399 0.0035043136684047653494 0.052071747822622783952 0.074709045628345960299 -0.012585421655222282095 -0.075810132524873938276 -0.076378875920710742609 0.0083166237960992962786 0.021458934268131779621 0.087904874337389277139 0.036791601583368249706 0.055632979472087104589 -0.075840164000518586751 0.066144131441922646153 0.15704334051925250559 -0.039233654827585534575 0.023427108972897407041 0.14750305778485919839 0.10810223443304489699 -0.10354137727721880735 -0.11684755727091405975 -0.14078732903508611729 -0.095389265569610012796 -0.021947037510251368037 0.10305245611739267952 0.093003890014873760728 -0.045534707578976679754 -0.053483140649013993784 0.080953395035988057193 0.02000217468733858639 -0.14141820379720060341 -0.067103438807706972113 -0.00044612094509101216837 -0.056123164834569798376 0.094109932912007407402 0.083655037385623104429 -0.098627681848216047777 -0.11223938057965125725 -0.049386462963707009055 -0.033409215628179257662 -0.087657497145896171031 0.14862685340801920497 -0.15207247764671411039 -0.12906414324907494739 0.11796727182571696557 0.03545653599818257562 0.050868807779828974225 0.091179389151112275047;-0.0028488858611198596658 0.15302944204216378798 0.10708288480037350676 -0.10029503222447481992 -0.12525021645459832875 0.071132304477476412941 -0.032154565356781031338 0.069380984660735570135 0.099205999124103147468 -0.13506646644562125825 -0.00071431284055463212419 0.023066470698015033303 -0.039480127047559099296 0.084147352671994565809 -0.11128966686993650714 0.13087720547648351577 -0.13511650288061896608 0.10476707198156115508 -0.13327065495251824712 -0.097342281980974235123 0.095267401354160147209 0.14787210443137052684 0.14649690940355358793 0.14862688023770945223 0.10337953747058278853 -0.14229841406192425546 0.11404358888712587405 0.075022886028152269144 -0.038013908824465404701 0.10479732193069268842 0.098956184453655990363 0.10892934740150722606 0.01020250533829614864 -0.1330514869359565866 -0.0032827507651033670244 -0.13376155007578041656 -0.053792520961812410885 -0.050257792592662477171 0.077973316914969226232 -0.085305622147487880635 -0.13010249608421495249 0.047667116022836943101 0.13025583847993216224 -0.048194006502541242298 -0.15128647176378143269 -0.1133613921914185807 -0.067472484041485800144 -0.042021060244795752081 0.13609929305154144785 -0.13350262668099066588 0.025667768172346464017 -0.0060608566469443703531 -0.028200830394334231582 0.11002879297104480039 0.13360840090271222658 0.031042932406175602345 0.012868639181518105527 0.043360456206191194672 0.12442143816108901244 0.05641080060487404374 0.1260412056874209985 0.096254472111029096282 0.11593817964691584266 -0.10104148335422331872 -0.078477853803241001684 -0.095842123014105107259 0.057603540704566413844 0.013703480255119802542 0.11055948994113530548 0.015642539811492234963 -0.050104109364931100068 0.14164739591552519271 0.050886511750330591652 -0.0036836518824942127148 0.13639685418099833925 -0.083573427185048773658 -0.11167164988899866418 -0.13512379407873653658 0.069709711799752785422 0.076977279463708969676 0.017069863701624627544 -0.041366792538675638269 0.10313960867113484976 0.072221461933938288502 0.066936331306404556196 -0.13255170115556169641 -0.14177280316102380819 0.1506441750311037775 -0.15296968423452245167 0.087405657170086414887 -0.13257595057316504117 -0.11881398163574836968 -0.0034969492658176518085 -0.13751849733019033684 0.0099432349689070331777 0.11552463038605029211 0.05820763433648592361 -0.039052933660224546653 0.11427953957018574527 -0.14344560518470267363 0.062813039588049526807 0.14707485079046997423 0.12811183155484892615 0.01017359445764081001 0.0014167342238523325092 0.14364923562252510103 0.041280274765170557605 -0.0093682738903798131597 -0.13848002182832760965 0.063600862431266655395 0.039803888517154918658 0.10273310039214637868 0.10332419045619654907 0.016929048473532205127 0.078349612492919454287 -0.022726394050525646623 -0.058879220586271853455 0.02237721574474463293 0.041824799270281334818 0.11646350593937158935 0.11614977916316839013 0.11543628088278981569 0.1193884469649886676 0.017251929194312325827 0.075691621088707944365 -0.0216633767567065115 0.08589339484389864332 -0.056340978969941668542 -0.045678398412491695579 0.030128069438813274289 -0.044522573531157440263 -0.013650261837406151705 0.052676652799057643861 0.086051409707479070699 0.057871627755904007928 0.089119669567421580525 0.038180241729735893419 0.029760937909210562202 0.15078544454052783541 -0.060591330303052103046 0.043841553841097481714 -0.018446082789335571661 -0.13333612260393432059 0.064579582563046772359 0.15115081545373029726 0.094887939582122798887 0.02922302584698477021 -0.14900091002617837921 -0.041558925364665856572 -0.029935890677773510649 -0.059289928536263164505 0.11046988807230127827 -0.066530090996289176219 0.06166086993865891458 -0.025479512292709866061 0.0036458601699067933952 0.10935783621480259231 0.012144454898852146199 0.082336503368109284495 0.045089760339890594398 0.10937892661758617796 0.082399554904001123812 -0.036682878028186309549 0.12922009594942296395 -0.1306522007840411892 -0.013404944807601300305 -0.058015025981356625751 0.12646151697619545384 -0.10969574059701589497 0.071765860527592664764 0.0021539995880341016379 0.14707901717607554937 0.089680207893051214207 -0.016587083694655058164 -0.016967191525381133954 0.12006101809450539508 -0.040009764626764011963 0.079144220810840937297 0.11594302211188317608 -0.14854949902803354922 0.12773591899407685246 -0.14360425886698882647 -0.14007749157685076002 0.1009878106429915462 -0.029601780450078760132 0.14339229690118970861 -0.059302356110875815987 0.084356317712218631399 0.072337535751558629249 0.13419933709458800597 0.051601828235648669607 0.029037341640460616332 -0.040532716144693170524 0.12505282223589656021 -0.08312582764725520712 -0.045049883048191040336 0.12733081658678335746 0.13039725125531720362 -0.085626675025586629353 0.10403726752722686211 0.022476701040970999135 -0.00018751705272486828154 0.08490962283020823953 0.10402296185480257307 0.064345993459088854372 0.1501767842001448805 0.057580773310134579501 0.04258095744028037033 -0.018355236412253849582 0.0068018863927978585188 0.1202593926138884467 -0.046078521095591365442 -0.074700903869376319988 -0.12025186140946113322 0.0080486586918759768505 -0.15304648273328283481 -0.12726546707342611953 -0.11798949967770970548 -0.11820687465981528919 -0.12388873231072064507 -0.11769317841936420554 0.051633047292414094298 0.099083554152953126626 0.12916166695264991171 0.081021257762335430197 0.020173702778201459823 -0.0014378966636930537795 -0.009587428621093010625 0.075373313649971615535 -0.0025212185936634313316 0.06695093274958306695 0.13508000898912828069 0.0031406767310789619231 0.11679227596620787855 0.098398167145193671246 0.12239658053423950468 0.065439777974567514551];

% Layer 2
b2 = [0.023818492936312329888;0.35164897428000618795;-0.33309928180676551257;0.33455855010467039357;-0.99684840567694132929;0.56834999836770827564;-0.89488153863418840039;-0.5729706174029187693;-0.16548904486815962933];
LW2_1 = [-0.33466226311485414158 -0.39674876336448217096 -0.5950710308180757746 -0.66353260323134732879 -0.78137082679606728597 0.21241971355395716792 0.03575669433215455939 -0.29192851484042869892 -0.73711382169649208862 0.28656641882115319042 -0.98084124423178176144 -0.20573335432810324619 0.39562574708485809261 0.80579303242407873675 -0.77902672710361864361;-0.60794186159058472008 0.61941045037389486083 -0.30979052521601913028 -0.1816396771641242136 0.41896045761569267185 0.59472956148920963493 -0.99485553807341875476 0.20098384793584167518 0.28903383294685558447 0.6430354936567626023 -0.9302907474661299414 0.41006527283455862509 -0.73771621592895741948 -0.85566209273043769556 -0.1948261625070071279;0.27465299501565865192 -0.39120718689789346634 -0.59969158648464704342 -0.50121733485649322404 -0.84690713988922228239 0.19696092365627038134 0.26738658669724491013 0.15108010886397726935 -0.20934939973248911649 -0.055036461783739332176 0.48218450591326855736 -0.054107613361680906294 -0.55205076559599097763 0.78227344412262778128 0.50931161554257631252;-0.84489124106381630064 -0.49701399338644280945 0.34330176972169401672 0.45560001456119469943 -0.76570761348376636946 -0.33758849609659491442 -0.64055873738123736416 -0.51837380337875815783 0.037079757807504387657 -0.26533328916245757512 -0.050659554444332233203 0.63085202455772115826 0.76137930290799604727 0.74619107178538457426 0.027332017655953944058;0.91944876429970689991 0.4598473324304559462 0.23662871046787103957 0.13697751492577148191 0.12773547177870892 -0.024084235403478038151 0.56268447177488378763 -0.57264887530911101621 -0.61212954149147424943 0.14813664418112071353 0.15575521225978605777 0.79697610108081007319 0.26353134085063523173 0.61886037398381033015 0.18338030846198227763;-0.92589230902348229613 -0.70708170088324884262 0.53965991762094400741 0.015159248755582499513 -0.4949614913642106373 -0.41096298685491383651 -0.34310601302689014425 0.23977815953252434866 -0.43439132767470689522 -0.9476213227808711892 -0.3091977093134368193 0.70354253181883352752 0.91452664000271344236 0.17184254322131042869 0.72224347346968231776;-0.53536510522758540276 -0.56926365548044133291 -0.14305925399094387984 -0.42789717478727329336 -0.39743968659136275079 -0.67942442915246892277 -0.77766270715142415959 0.72470769585096839194 -0.90733234497560100174 -0.21417804870955059471 0.24835472300103900167 -0.75509621774388269166 -0.13974914618892841922 -0.28391334405569512711 0.98656860847040284135;0.99577363612144864646 -0.4281578767900848792 0.58395875833070309824 -0.23039114592102971635 0.90198520205965149188 0.042645250844104864996 -0.22318354638865556261 -0.96011410466703739353 -0.69913243754647114159 0.33434310847215020779 0.96860325741940567212 0.5770395548144464648 0.30443801922420754558 -0.82664625258784663053 -0.52054669867878589073;-0.41136857810100657673 -0.93956088273794247101 -0.47983516226166345042 -0.17882926257529341285 0.35960047957059093626 -0.63239766819411968868 0.68686785166472108521 -0.30487034788190059409 -0.080885312626644445544 0.13667766648822299302 0.55555332424075443143 -0.64038465139090305911 0.78757867305913342726 0.86606728589345638447 0.37455726630211638728];

% ===== SIMULATION ========

% Dimensions
Q = size(x1,1); % samples

% Input 1
x1 = x1';
xp1 = removeconstantrows_apply(x1,x1_step1);
xp1 = mapminmax_apply(xp1,x1_step2);

% Layer 1
a1 = tansig_apply(repmat(b1,1,Q) + IW1_1*xp1);

% Layer 2
a2 = softmax_apply(repmat(b2,1,Q) + LW2_1*a1);

% Output 1
y1 = a2;
y1 = y1';
end

% ===== MODULE FUNCTIONS ========

% Map Minimum and Maximum Input Processing Function
function y = mapminmax_apply(x,settings)
y = bsxfun(@minus,x,settings.xoffset);
y = bsxfun(@times,y,settings.gain);
y = bsxfun(@plus,y,settings.ymin);
end

% Remove Constants Input Processing Function
function y = removeconstantrows_apply(x,settings)
y = x(settings.keep,:);
end

% Competitive Soft Transfer Function
function a = softmax_apply(n,~)
if isa(n,'gpuArray')
    a = iSoftmaxApplyGPU(n);
else
    a = iSoftmaxApplyCPU(n);
end
end
function a = iSoftmaxApplyCPU(n)
nmax = max(n,[],1);
n = bsxfun(@minus,n,nmax);
numerator = exp(n);
denominator = sum(numerator,1);
denominator(denominator == 0) = 1;
a = bsxfun(@rdivide,numerator,denominator);
end
function a = iSoftmaxApplyGPU(n)
nmax = max(n,[],1);
numerator = arrayfun(@iSoftmaxApplyGPUHelper1,n,nmax);
denominator = sum(numerator,1);
a = arrayfun(@iSoftmaxApplyGPUHelper2,numerator,denominator);
end
function numerator = iSoftmaxApplyGPUHelper1(n,nmax)
numerator = exp(n - nmax);
end
function a = iSoftmaxApplyGPUHelper2(numerator,denominator)
if (denominator == 0)
    a = numerator;
else
    a = numerator ./ denominator;
end
end

% Sigmoid Symmetric Transfer Function
function a = tansig_apply(n,~)
a = 2 ./ (1 + exp(-2*n)) - 1;
end
